mixture_class,"('age', 'age')","('workclass', 'workclass')","('education', 'education')","('marital_status', 'marital_status')","('occupation', 'occupation')","('relationship', 'relationship')","('race', 'race')","('sex', 'sex')","('capital_gain', 'capital_gain')","('capital_loss', 'capital_loss')","('hours_per_week', 'hours_per_week')","('native_country', 'native_country')","('age', 'workclass')","('age', 'education')","('age', 'relationship')","('age', 'occupation')","('workclass', 'occupation')","('workclass', 'hours_per_week')","('workclass', 'capital_gain')","('education', 'workclass')","('relationship', 'marital_status')","('race', 'occupation')","('race', 'education')","('race', 'relationship')","('sex', 'occupation')","('sex', 'education')","('sex', 'relationship')","('capital_gain', 'capital_loss')","('hours_per_week', 'occupation')","('native_country', 'occupation')","('native_country', 'relationship')","('native_country', 'education')"
0,74.96872376149521,25.714557712333917,93.62276957995915,-5.51841820996121,66.4510604720244,-25.036115362139654,64.34315773812227,25.506477378679534,0.9387234667203965,92.07721578363916,-9.132283943526568,95.41607624696812,-12.07262687701013,-17.393057256486134,24.854630299245443,-0.2548548704249338,-54.68715173090285,68.56661127318934,90.87095508165211,-32.575740706078484,82.84147817920791,87.48910892548352,-56.8451266211377,-33.44467069161514,-34.58864870736872,-48.29809111940363,78.02462604039032,89.11530298178697,38.10831779209238,-54.88488365620525,85.11552910845384,4.58678618561115
2,52.33501325648591,47.30395882755504,86.55659629836893,-40.11943767078612,54.55321824315002,-56.69738522727598,-36.75195587079084,-41.76439251545268,48.41073888765369,20.97280754827916,34.01648404442796,22.621502974022658,58.92242594171187,87.96752315525008,21.05489856015579,-15.744856391719939,61.63177371359196,-9.697191041483698,59.93665065717337,-32.272974725158114,33.1602718825668,-54.73459823172281,-26.067505699512466,65.56807064386577,89.69388819104964,51.890162571829734,-28.629047676859756,66.31383511033924,43.583893427017905,33.5086546315724,10.24236786484689,48.55632441650269
1,14.088550369225175,54.613426536750616,44.06535169952603,-50.3059634260446,-57.466635664875334,-43.11884475885826,5.739663512458053,27.523705270702667,53.4157087424506,-12.662363425925538,14.89110067883391,32.10265321013949,-54.43451156118826,82.49124193679236,85.46197488130755,-38.0907257824694,-4.789322831847163,36.6024062904238,58.3691226397519,30.595691500283248,73.38137139786569,98.45207510095037,72.77410687143873,21.39431657416657,11.10395691122971,94.5526965793961,62.33310768629572,65.66105876112874,58.02485951885467,-24.76888273261873,98.65183602302469,32.06096216886784
5,45.86377583083468,15.221240669241467,19.786183063491166,60.502020717842676,-57.90263473171189,-24.109313116277153,66.78929340785086,75.40565691070694,-32.06232814970413,39.44896038780299,63.97141549671281,22.39213270880197,40.43816578148271,32.818872439972736,61.46344713721949,-44.35890269533743,12.459579015901166,-58.767711441650476,-34.72105155226359,9.052752702180733,-32.934954873575954,96.12592205508687,-33.06496303971133,-45.525392949530556,29.989246432846528,-14.09038590657482,70.11436016006279,11.412231353792777,69.02312440622022,96.87309733287974,-24.214114028252055,79.13352310246572
2,52.668958237457154,47.4091497294833,86.72595213623235,-41.01541915293701,50.42637962710311,-57.87391672375368,-36.86526156338458,-42.470890021295894,49.25461749284865,22.97800252967018,35.69571325622006,24.03047707034035,60.528239827801,89.69506724919003,20.014246767392397,-18.221439698766698,60.6051253726908,-8.905049459320661,61.91209467041097,-33.757404684549485,32.69676800963973,-56.38425865199731,-27.076712544415187,69.22098290811226,89.22999399732164,52.57221256495813,-28.98920446194244,67.08826591242266,42.674923131174175,34.81701474811829,11.554818996083027,48.45565716565152
3,-9.76757934499502,70.48331259728496,64.96961096764927,96.50647103678901,51.86403560489513,-53.894267296577766,22.755711171345048,85.06065885778341,88.09000024460111,62.88665250383578,35.90904920631631,34.17959338888624,5.10118039826976,62.22898533466682,-11.645255286206622,7.172118304158248,-23.211727798031117,4.882177083213285,-2.634332253035261,-2.465423695343585,-25.8731115140047,18.446533248173417,59.15205215573331,-29.652600162865347,6.7457898837309695,56.825076482792554,-58.16656719909072,-16.010173875960135,80.4249027172465,58.63499212020533,85.2698893684065,-41.06806695778902
2,54.09356597953011,47.16398484577685,84.9160212739052,-41.00116210647288,51.470724815679965,-56.257248759044174,-37.416321489988135,-42.53106008106535,45.84243236676695,22.987633492707758,34.44761312277471,20.27186056216236,58.16739458327469,89.33874734873261,22.744319025115573,-18.90188135808373,62.35968503199546,-6.962871559379973,62.29790865206438,-34.79937971591295,32.892652267957736,-53.84378727957501,-26.199980938678898,65.94520429991398,89.31649092435107,53.256548088192886,-26.70289647360362,65.65996030791902,44.347486047431126,36.05497127121036,8.26425301887123,48.636013728041604
0,74.37360409166233,25.30556682159474,92.90271229824585,-8.335756110491287,66.8546276456283,-25.797485185447147,65.3793720360062,25.677705432800526,1.5428335319638764,93.28815674512687,-10.824141834532577,96.86847607621907,-13.760196608863243,-17.11067926777303,26.186279569684295,-0.9570004053731421,-54.69072447138487,69.9916702515815,91.06981097497054,-31.69753469354711,82.86068250469171,87.30298086444101,-56.62797951753799,-32.1425357956131,-37.465764917366315,-47.331908498632735,77.30125857096543,88.49094657462626,38.15932882721859,-53.80744469105541,85.70005398308837,6.7492027350769845
4,34.49190331237619,-56.6777985250457,71.20156614496177,93.18439929708812,95.34345131250768,0.8766098976099129,32.63279384461278,85.12945008547501,-46.975645342437964,-34.07384903650113,16.91848129859203,75.37958755890048,-23.790915879911825,-40.175886728769584,-49.71442592967015,-28.99729599265263,-34.2440429386298,94.54101102654376,53.900337232679036,91.19656612066214,6.101690397122843,-15.421216244895776,-30.829206230658137,67.1885465879309,58.47970460485837,40.53062518393601,78.33984203856198,-30.162221088515555,77.6482843059481,-36.30058728099113,10.745701151645644,0.3553610004090416
5,44.36804130392633,15.379532703303932,18.014598228248023,59.159552890081706,-56.07072886900629,-23.892840831709396,68.84271480134107,74.59547778804601,-31.515846093266482,39.349522386753335,63.35108274179555,23.340235784080367,39.62274386098754,32.28381272132918,61.21790734996324,-42.62328883806874,13.70172424411959,-59.28475615355672,-33.5908727557355,7.1719310880131335,-31.621973110364692,94.9735597447529,-34.12131032000227,-43.02842367762174,28.195015017058427,-12.953071270974378,70.62591714083943,13.097015172242424,69.362471267429,98.31074203922029,-25.70953668225218,80.41173841762449
2,52.15394203121205,46.25399182204251,86.76892022697446,-38.199262111044106,52.53578075429133,-56.22256851717711,-37.04274896713773,-44.309279086903516,45.88891250419524,22.86960183938026,35.655790920552526,21.446007811897886,59.22925919108597,89.32712608458839,22.0601756491089,-18.438809771198112,61.78243934714232,-7.38128006646534,61.508408275491405,-33.26880821992794,32.30361253138235,-55.76188326641556,-29.77570142150693,66.21291908286261,88.95463042092227,53.37606450052389,-26.721882370754866,66.20385140763285,44.54946138116693,35.26755902805301,10.310636959846274,49.154793747800795
3,-12.045678573367521,69.06826083794695,65.32628508520531,97.6934320023424,51.07747010262144,-54.08979442263669,22.352476785004242,83.33938971105509,89.73311005574612,65.1634451976762,36.68495963249264,34.963962993582484,8.98427671637367,62.86931588176945,-11.207900536068149,7.663706285785901,-25.97250057341067,6.550418394397073,-4.613133399860404,-2.1191206029490606,-28.37081529772804,19.421086635809836,60.27077563491296,-28.317445356396764,6.259228745126505,54.78234299168458,-58.14487042146317,-14.104014751315772,79.855921602761,58.071125490104365,85.99597622436548,-40.34265229616075
2,52.442017707052415,48.720381420380356,85.80815160634667,-39.36298416555324,52.35688047739204,-55.76000800342526,-36.28376791864589,-41.62576856881801,46.79893471432826,23.579034551069526,34.95475287117068,20.329260665598394,57.86803202299198,88.78533070028803,20.708119184754977,-18.8476963951634,61.761305893709384,-8.801344878069079,58.96924213031275,-32.66014708320635,31.00409492080315,-56.11829528734004,-27.399289333205886,66.56735504658958,90.99812096935842,52.43874381498552,-27.60001733624089,66.27847509541826,41.96169415616505,35.456643161386424,10.09912100180955,49.112296270924624
0,73.04752870855528,25.43832100452228,93.16801190615789,-5.071149435932068,65.31805515346053,-24.76108227465033,66.0430874658783,27.33401432468096,1.8573197247302853,91.43315090119339,-12.432347331187373,98.0510261863912,-11.589059401713268,-18.66363654523453,26.87741334567831,-0.018110979642780856,-56.47201759261101,70.90941701495166,90.62573304476447,-31.661554105927905,81.58425614809771,87.67518322861234,-57.25310354492775,-32.34982698245251,-37.77063978236515,-47.3882020059501,75.66022428753601,89.88395928365199,38.657308621225305,-53.156808797296314,84.23117403478264,4.398583234633013
0,73.36097292066165,25.404894799665424,92.15192711455559,-5.088247394046056,64.12060114614135,-25.402976138815387,63.477055262663,26.50437728026276,2.900163712121316,92.0195589072746,-11.300293861120972,95.80893475268601,-12.227246603887053,-17.037612015841106,26.347897803191145,-1.2990939395809087,-56.93595471217556,70.43289072395618,89.16423053685811,-33.25197447247117,81.31108026314362,87.46893428282041,-54.782500395144865,-31.715999719137127,-33.37384151965218,-47.50968383581129,79.73536962836927,88.73892463301318,38.61012194068424,-54.767177678271814,86.0005982796581,5.1896972440831375
2,52.19082442521794,46.59098941874486,85.99067864999233,-41.144973556169525,51.43414208341407,-56.605731445854815,-36.84421132795057,-44.870175539209946,47.65466169034133,24.004614008818287,34.97399839523609,20.672438546752037,57.85328653898573,88.48250107581123,22.916764674718507,-17.37429731322973,60.684115702277076,-10.498256441399855,60.14611822977679,-33.463830382554136,32.02798243789374,-55.23092659142953,-27.440838962062895,66.55320085391222,91.34241281133872,52.41463242219981,-28.38445685630277,66.69691889402172,42.937756065290635,35.746187513497674,10.730991043180989,49.141628163216
1,14.583098516212061,53.922750658089456,43.20224385125929,-49.05874501687225,-58.70878291088768,-43.20046075691178,6.668344954915291,27.558215104206337,50.399710197308515,-13.206464142266631,14.449937663058167,29.895414099738513,-55.80089014272781,81.18159190350903,86.64537963907975,-37.3065349095636,-4.0598114097193285,35.10867768211449,56.813549588908344,29.115451243858043,73.51924052646011,97.58645018443232,70.82168311471281,19.880717028249492,11.622140029639397,97.67310122136001,60.09109410672129,66.55597200518659,57.16112190787267,-24.16738455492935,96.88569805609998,34.19784074180771
4,35.27000125002819,-57.498217344500674,70.20901675372147,93.8476977207686,93.1487568308781,1.2389307328910153,33.79597257066539,83.51513273425574,-46.38948090223882,-31.421867342522887,16.50234555040563,72.44103058110106,-24.01997590947483,-38.577976276430306,-50.62017736107085,-30.15036712381707,-35.06421463015267,94.57119975925694,55.484133039124,91.92807651040867,3.6143177249986564,-16.488654341190372,-29.66758759795826,66.7430537553644,59.25606411533888,41.38136664592054,77.37744876087557,-31.65352006026809,81.44227500974843,-37.62526160767348,12.306868109851687,2.8226126227442903
1,13.51194393249873,55.10167151241859,44.729914652681444,-50.14938525847376,-57.25262281032087,-42.370707792688286,8.06212440036927,29.061540657060128,49.38548161501651,-11.455336122296774,11.640743103294074,33.38107735225391,-56.045900821554426,82.84543198332342,87.62779746638965,-38.67501578271443,-4.615627325994241,34.346253230652124,54.448731070425126,29.992895497906414,73.89407784666389,99.2529282596645,74.72631343586836,18.87995297059604,10.587257129313926,98.50476247237272,59.50141100528492,66.2899747981023,56.29076718019181,-26.513998272251776,98.40818949790132,34.06759568672321
5,45.978758213448586,13.710694688409996,20.79138477259825,59.2957210816289,-57.46858422428744,-23.566757798057626,67.4393234683245,74.33325405217296,-33.08497222964045,39.26431895313506,64.79055358411013,22.1900310753428,42.00402247746495,31.226819535714235,59.13952114189267,-47.362837405374464,13.327746628050681,-56.85783430440331,-36.04587922546443,8.947292670715377,-33.32985498753453,96.58967293290242,-33.85809677288255,-44.97724786418614,30.24058252868578,-11.625848404297873,69.62169485420158,13.621391602446424,67.41763339343547,96.4123754788488,-23.640378953128373,80.06814831787185
4,33.35461998666872,-59.41591116565757,67.34859582122412,93.15855773439654,94.2556459030298,1.9718301814970745,32.33852231491442,82.76501625975519,-47.66029605595553,-33.60394779763536,17.894039039280617,74.00784169238885,-24.62537251621405,-39.8974981930691,-48.663565147083595,-28.521010105556353,-33.20650092619556,94.96151103169173,55.62597534270315,89.47515439957161,4.3867649413017515,-16.269625663429633,-32.44499339128545,67.6510158267383,59.29873541178328,40.302530944139065,76.32352611464599,-28.328062636781077,78.74981333078823,-35.739619364164874,9.236340660997847,0.956854865289176
3,-10.61908506944152,69.90624284816546,64.04251079236593,97.25111575207627,51.25329025095313,-51.96505588262856,22.195022789331325,84.22307120932827,87.58484485982292,63.8441533835791,35.31471637314429,34.58233846588785,6.689625470493476,63.318182464544286,-11.565726757037451,8.144905332350799,-23.287742371081155,5.531434217706185,-4.940096582523381,-2.208172078667512,-24.916957282841345,15.574917619872025,60.20356832855656,-28.156801992111916,5.210587230050711,56.73411568934679,-58.74770116645086,-13.065334721508146,82.09905607993443,56.66844926422865,83.19294578005491,-40.67713579278381
4,33.414793558461945,-58.96747414449286,68.33785016879948,93.04636818276211,94.93152449327336,2.5455099364465155,33.09907617921868,83.6877527632225,-46.87635419705978,-32.58918433138388,17.375343630560586,74.75666764045481,-22.822940859528593,-38.19363515426442,-51.273231716844634,-29.802796794071472,-35.223675845610174,95.20011117116331,55.93518888085341,90.89573746449594,5.459393864971895,-15.181353932550133,-30.6736564163911,67.41186508427893,60.95012732631138,41.6225715755399,75.73809636330941,-30.29820731041822,79.23855296558908,-38.93146653977043,9.463894173320432,1.9829885505062346
0,75.6175066784568,26.084808098493294,91.36602811587899,-5.9985814756900755,65.29157556818254,-23.47294249412437,66.1020218923584,27.21612318929316,-0.4794878933172044,93.73807923071949,-10.003207222716004,98.23330053343228,-15.14623908029796,-16.605548428729332,25.342240782302138,-1.5089790302957615,-54.77677974430786,70.20293896433039,91.17276737998505,-32.170203811281894,82.0604024768911,86.03476631463616,-56.15966266679857,-31.520227524957495,-35.92892592668774,-46.795522482935496,78.09305999819294,86.89309170524501,38.169921395075946,-52.826452221826784,85.59102537063144,4.10409267075357
5,45.86424731339276,15.70085924715142,19.849500650425274,60.51099964253476,-56.605363019381606,-24.42139818345664,66.04269361201621,75.4439510030075,-31.64922271604166,37.52294436362882,65.34850006928058,21.54895504770653,40.897134057084386,33.40135947452887,59.09184238186079,-42.428892497977266,12.814187187644002,-58.19646345767567,-33.936043818828246,7.457571899392787,-32.145557670426506,93.52006288261079,-35.05566335974168,-43.68393327928963,27.818366737507205,-12.896797834075874,68.92522324972947,12.930657598403224,67.59720061912004,99.72430152475305,-23.775870238655187,78.80875151095744
1,15.447140538378124,55.398264024033736,46.30317623750505,-50.16978273916751,-57.648795628457826,-43.11601012436104,7.587943991229652,30.57055904644669,52.99508840552543,-12.511845953851667,13.949674960412553,30.81967051477143,-55.56925984360105,82.77000645906635,87.85961626706391,-38.22724144134673,-5.781327717405511,35.96228060998973,57.674719159795906,29.195841434923345,74.55222865180627,97.37267821876736,73.36025285426872,20.416401438893043,9.782840529298193,95.58160134544822,60.9562470807911,66.77555653726593,57.766869489282925,-25.14030825394625,98.73951928839102,33.2414134151076
1,16.15199547601549,55.83457645616563,45.013155371241915,-50.981804318307184,-59.96822566112327,-43.05612417481636,6.844583087957578,29.689824239048463,50.51585617144515,-14.849783791649994,15.749662871223714,33.15459022497325,-57.180443958570415,80.38108855746476,87.23614540744313,-37.81979496277684,-4.778333813380132,36.78539116738228,59.199259263163015,29.270593269227952,72.81152262955281,98.79411187059398,74.04337239344859,19.346530800978762,10.250939206698058,95.82441499337654,60.82682896511209,67.07326458845321,56.01787588332873,-25.52120741283436,98.92151765184354,35.013063242176656
0,72.0022719766735,26.916858031738755,91.96454084457548,-6.975069456467634,67.37047502951077,-24.092731536238578,65.78976761818575,28.773752242288534,0.7167178606301388,91.37279635914507,-10.82889021977623,98.30912844899666,-13.74206179236194,-15.864054953775483,26.33951388643581,-1.028837785634346,-55.48268970046849,68.32554604234002,90.90889191614441,-31.941080919227634,81.91379745047232,87.2993614509568,-53.54886445439775,-33.275428979452826,-34.00933601340463,-47.4456276568592,79.043893603028,89.66707759141579,37.96858376346226,-55.15620891605561,84.77433957321253,4.601598224641412
5,46.358694478689905,13.464644378265442,21.89362695966739,60.80031780459817,-54.96426349712788,-23.632002536051147,65.56594964967834,78.09573919085985,-32.41885793278442,38.71800963305001,63.628295460325624,22.463389451250972,40.34907795398926,34.45499387788329,58.24768050483522,-43.102945979342806,12.539774351273671,-57.50563894924661,-34.669732938287524,6.566511861864935,-35.5868940295183,96.64625984485478,-34.04972039508779,-45.05378483832486,28.400791144966245,-12.56614514372398,68.69714050175627,11.655924770018704,68.3694479219258,99.52527516431545,-24.788532870180934,80.40905549903314
4,34.09519729269951,-57.44469676007548,68.013086720968,92.95225376553621,93.92671329514714,2.7874890984988214,32.63885576443718,84.82753529672988,-48.811639707137964,-33.07164299169162,18.44972636844918,74.3703511788152,-23.288563764622396,-39.59164790234777,-48.6306001572835,-28.778331221423862,-35.81964186232126,94.8319154183576,55.20285069038438,90.81979860597205,4.765306514365199,-14.093389725179785,-33.18960469112433,67.45541514514653,60.15797714288872,42.004827698232724,77.6007767201987,-29.645900530809076,80.27388902979072,-37.531526231156526,11.357838825371038,3.657346830616039
5,43.7611231647499,15.502374772371196,22.043868225251973,60.046148344137315,-56.70001001277173,-23.10769588940454,69.38610340828099,75.2855892865973,-32.46204004845735,39.623147032332504,63.776326326404664,23.42342493083534,40.80187205693498,33.45517179830672,59.0089068334926,-43.59958564076053,12.507960637590319,-58.688621466502894,-36.3515043404461,6.875839315275222,-34.12480868563909,96.32957538713408,-33.620964929917676,-43.81251005444135,28.737273860192392,-12.918947978570714,69.13357155165896,12.352483897956752,67.51792799236216,98.55650052403074,-24.749679395795496,79.9676825261579
4,32.5442131960453,-57.6745246134538,67.14700588533641,92.15412169676483,94.96673612757694,1.7649570565473063,32.52699250537648,83.93578742075924,-45.888112100756565,-32.894756459272465,15.146712888059412,74.68329891472487,-22.961223846736313,-39.10956665590682,-49.3292765565322,-28.02912681890293,-35.53761933130603,93.82752386818416,55.09889028667622,93.78578457941586,4.998204343619119,-16.629982502036665,-30.14392984093613,67.71924792217399,59.03984364583763,40.3942146270247,76.41488066453155,-29.619244620999698,79.13861080168502,-36.986616497033765,10.091815824835423,1.0560965276295466
2,49.764136486627585,47.782711058514515,85.27725401181267,-40.82864654334068,51.55919621109942,-53.30636226362689,-38.49690228021986,-43.28947336952872,48.65170432668866,22.632571953360788,33.56606885162546,20.648128954457054,59.07769829094997,88.23326864880751,23.133025370284493,-17.067300242049523,59.81702834400466,-10.583142964331905,58.96341598927448,-32.07302824704608,31.95663023777995,-56.88234685833081,-26.631561286958124,67.86567929000577,90.26156485762534,54.21201561388877,-28.07793833845316,65.6078891006796,42.293497855589685,33.49406469447615,9.203411509053302,49.81207975902923
0,72.2325238247766,26.038786039475994,93.18250700630476,-6.0795309645446665,66.9564258920093,-24.464351480092443,65.36114109971483,27.792611870212273,1.867435733938011,92.61389555407324,-9.72410391571236,95.90987798816994,-12.321732316460901,-17.449322971531718,27.059908732698027,-1.243458266614687,-56.359349176598506,69.11521165501634,90.00307633908282,-32.80431060001975,81.43405935061978,87.38641742924274,-55.61405122354756,-32.212281113755054,-35.80738039175548,-45.88392143588981,78.68663563634964,88.61649620306568,38.151599985558306,-54.309880862822006,84.48031471022591,4.690172247836638
2,51.35393083992329,45.917255115517534,86.0312603338523,-40.12786773331581,52.492525894315385,-54.56851999552727,-36.337352909625174,-42.13544874134717,47.213017138439604,23.835971741088667,34.740300298512274,19.634723708488472,57.86509659443596,90.11643438511378,20.694048730147422,-16.588685488337255,62.98356810293518,-8.734617417443587,59.515259326273565,-31.88204872579793,31.674246146682563,-57.001477659590016,-27.316415293629944,68.97228256075601,89.32306405211442,52.68261366136239,-27.070281916042717,66.26689224104133,41.60331668191422,33.92931687644909,9.768350011357944,49.295666822822255
2,52.471023182798646,46.62453400894281,85.49491900761994,-39.90346060238703,52.560286294092144,-55.59087654481361,-37.17730841573938,-43.9969793845466,47.082939748330666,23.157015587044793,34.47806995419425,20.972825151550996,59.26211865393103,88.89550198121267,24.49814882011076,-16.383711087072363,61.986134508595754,-10.254447106038228,59.50728571433513,-32.15077777492306,31.806782459230917,-56.70355638885484,-27.66476546905334,68.53352800493462,91.10672914783528,53.61727565744736,-28.470738131159596,66.37868276442897,43.13701708309828,31.45932711496528,9.451313403295234,49.55455072001482
3,-11.608260508628026,68.05418928760007,65.83232692323423,97.21061607503314,51.63604135371548,-52.918279409529895,22.38383597668875,85.20221584725222,88.49831963261394,65.46901116144959,35.85655724456002,35.30879355965901,6.148539478965754,62.09951351239283,-8.986002691352763,6.65244858395779,-22.225457436001818,5.663949248104386,-3.125231150577604,-0.7427901703187437,-27.334097739910504,18.44457553367262,59.94407930115302,-26.226891310707195,5.4561939895880105,56.3141798587398,-60.671157107715736,-13.769954146482503,82.98013471168326,56.63981340180549,84.36552990642731,-39.14065940832564
1,15.130262362794767,53.39427668707078,45.057656381308774,-50.12854611846623,-58.66916020636629,-43.80488165195905,7.14009887596636,28.11730536083587,51.64902971948953,-13.592739781900143,14.555096536674494,32.629586263647845,-56.74394162845856,82.92441229951065,87.00394970784365,-38.3231244774169,-5.274760667769135,36.72902041301259,54.83557084731263,29.982836450067907,74.43272807958678,98.69822423751688,73.51009901995728,19.00661405231676,10.01552999283519,96.0207500115935,61.42586372466695,63.79557042890343,58.37911549924414,-25.842304367533366,101.31356670608871,33.60236346811493
4,33.05785672206634,-60.31138192127395,68.19737793628961,93.52325578326032,94.57718593581177,1.8565546099144323,31.99627439010049,83.56185314737695,-46.08679940190226,-32.38058150321012,18.051730639352982,75.62240618132796,-21.97509382603881,-40.43134293428585,-49.89467032491499,-30.835619315427532,-32.791417226304034,93.83492180365455,53.242265348200775,89.71799014623952,4.324959670947927,-16.60980428998315,-29.87088566728261,66.27286619525935,59.013533249793404,42.081162079241544,75.67667465724976,-28.76899254551714,79.53473872184784,-38.170833477362976,10.1572305787878,1.3517423542079658
0,74.76459149620302,24.268476735349587,93.75543420330705,-8.414391202562436,65.27809068908037,-25.93289504022913,66.46639299782753,26.26057520403152,0.34510581972432663,91.93332212030847,-10.256358641898093,98.49928672256817,-13.551357553801909,-17.647417555589016,25.606497492236837,-1.0448970885833324,-55.8606733027942,67.90898941542328,90.04849790413459,-31.5045171808677,80.5481072458519,87.58425087617842,-53.975972800378756,-32.905696051732974,-36.652952893311635,-46.762658639117085,75.18067011985545,88.04806953027675,37.82961647807469,-54.22328708636893,85.71643224972841,4.471165346106726
4,33.875544283714675,-57.70818385626752,66.97445682369835,94.38963425118314,94.4352239328918,1.3135865817736223,31.428336354977326,84.83087962526645,-47.30350808848666,-30.609573030606867,17.483661607101794,74.79299263460129,-24.094381942351607,-38.6672251823905,-48.36551720913986,-29.330820076687893,-34.541386751169036,94.39896294107545,54.716280947277006,93.26673418575302,6.055494664054942,-16.84361950218731,-29.1462049060312,68.98234867776816,59.74097587894075,41.596742858712055,77.42428040558079,-29.682327663891424,78.33448118661386,-36.94383385350363,11.000100717300164,0.5107115536215547
4,33.18745145976877,-57.50932618676458,70.17542977759865,92.75748949438987,93.47874175996367,0.16195013531593483,33.89472780191193,84.70444218385467,-45.512013921363874,-32.711593598612076,17.245083026373997,74.74918929381575,-23.966410080711707,-39.45099089483349,-50.4160090881081,-29.277163802161542,-34.77837581932659,96.37119587639914,52.99052940574457,91.69190228090305,6.085259795105125,-14.309797665699058,-30.21023843134022,69.23920341422723,60.2234311891775,41.71955229212371,76.47015103107935,-29.201821341057208,79.64298169844335,-36.28690375255691,9.658635760038358,1.0055222927102265
4,32.699242055344655,-58.43162770308645,70.8785814183548,92.23309017010632,94.12769820351696,1.2621406998902613,33.40902890101318,84.79463079520087,-47.76484339937393,-32.10348483761695,16.257653560909915,74.50899107555173,-23.326346588201485,-39.7133601391815,-51.014073408372575,-27.858648653854537,-34.44323931470844,94.02546870972253,54.03828811971997,91.018120568869,4.773372782263088,-18.050557185771314,-30.641078971538995,68.0652224727051,59.10294252727796,41.154238159252536,76.09127799871267,-30.882296409041015,77.11935261587895,-36.73035157231415,11.531246417094998,-0.9892409645857414
2,50.4811881914379,47.23794637839115,86.09319483516525,-40.70060983696328,51.06355405688944,-54.83933777858841,-38.523001626562284,-42.98727949129837,47.043461345936784,22.880533312308962,35.61676543325323,20.241989471581856,58.795690119182105,90.12897911399224,23.752051138444152,-18.929328008722422,60.909427857306625,-8.073367864888693,59.37094257414934,-34.136295506021284,31.911684298456994,-56.87927647698373,-24.758724911578383,67.68699296583485,90.54374788749796,52.50146232335447,-26.715955525615627,66.44904923143757,42.37548452632375,34.13593420118003,9.603399330332422,49.97125289014577
4,33.65106224816431,-57.89717197746449,68.47096983054034,91.6809314781029,95.37792730113705,-0.22532324663294978,32.742117274981425,84.1926423630392,-45.99077754546122,-32.195152641706784,16.261434210643802,76.68650256081519,-24.286261585757583,-40.8524341402694,-50.29357197534258,-29.29555768545727,-35.77712916279904,94.37759954450581,54.46034302309248,91.76772332611156,4.58225952017355,-14.147261184532038,-32.27070220264333,68.58757561600491,59.80956412550259,39.60507099466321,76.78577661846542,-30.017589374994078,78.71033917392772,-36.13465783574926,11.82972149947936,-1.2696980796967434
3,-10.733970854630908,68.41811770236204,63.77192168703681,98.02064588765715,52.42584790141621,-54.38373748724482,22.31671524300587,85.10049652485078,87.535476418994,65.0823473290731,37.30068497160374,35.021370774984305,6.619250220359858,63.01340923362726,-10.835734989441011,7.590734374428343,-23.97726588598033,4.498942609258949,-2.3445911432293447,-1.4301927628708355,-26.741463744434892,16.873513794503115,60.65138640390369,-29.231155224326073,5.83302839155876,55.333147489076964,-60.75904748640366,-13.632383723414826,80.22300909912573,56.39385573601392,84.87681411441447,-39.53420780533168
5,46.496977178994086,12.959735544055214,21.89521408355623,60.36573180797104,-56.19951002008803,-25.22882847459596,67.2184989033099,76.45586639751721,-31.131894647034137,39.21149179259911,62.25570467293517,22.643667721115225,41.97975651482619,29.7226711033803,60.07723936483865,-43.470571750764215,12.306855213604718,-58.403634332874994,-34.74702127653457,6.391115522522734,-32.26159216455348,95.42448218482946,-35.01468311858752,-45.707965789626904,30.45338556461661,-12.271369922072873,67.41778277607212,11.528569363222209,66.93102179722058,99.85721812944885,-25.248483324875973,80.75814177293942
3,-9.956500212244398,67.82035133832407,62.71693508486576,97.85386685294843,50.47795646421354,-54.54738483711476,20.238630920188392,83.65219819107706,89.63038948369771,65.24066939203067,37.38875032194077,33.71404869816039,7.309050580692143,62.46181278909414,-11.556833786531108,6.3926933179157315,-24.062891459084195,5.79171979355145,-2.72504643213912,-1.9192063423447565,-27.992966564855163,18.17336486035927,59.911152310188925,-31.710729979544187,7.826683561597695,54.68628587004685,-61.45284723221137,-14.755063634645701,79.58158139944392,58.28568735914602,85.39103413100587,-39.86609515249953
2,52.89060030685281,46.96630196340466,84.79702981721232,-38.94076308953195,49.85681848134697,-54.833850363470496,-36.52825081181409,-43.08897445481477,48.92619877368436,21.8320505653616,34.409445133927115,21.491817042552672,57.98270850126787,88.68487885433832,23.697044843581708,-18.100146955161133,59.174782434143,-8.666194428717146,60.070629970251495,-33.72519715361291,33.56209383927952,-55.9151118696448,-28.24152139211306,66.31869610459687,89.40360951395446,54.41872495019416,-28.230717623422503,64.56209738690454,43.15709612910504,33.386837934581976,9.423339736914185,48.48195438839396
2,50.850659143762414,45.68031375532667,86.08870600204408,-40.751686339495095,53.010821901738694,-56.768183925528284,-37.25093314713077,-41.48149808276299,46.781657105174496,23.225102185429844,35.378772335733686,20.058477521067843,57.72076231836179,89.41885781394977,23.203652051732163,-17.307196543871427,61.732079126151994,-7.441158993563904,58.145988949869874,-33.555890527687744,32.803180790173236,-55.93849014149956,-26.930120108503232,67.65611142062487,90.38796819067679,53.4963160010006,-27.65232682185225,66.04687892576554,42.90892005563478,32.96811646128625,10.112808462653891,49.823135245156756
2,50.69239369146841,47.32471182804202,85.25382236238283,-40.41418331270021,50.04631697358547,-56.42392239448835,-38.125124163596375,-42.71196376404137,45.57837826160834,22.087758304756832,33.84144458223699,20.911849899422172,58.18589100022255,87.14614803586596,22.564553176448058,-18.125523847284665,61.33188445092282,-7.709683154157032,59.388005572014485,-34.21551229385026,32.6379431617775,-56.540825995802805,-28.625078932021506,67.95393635743524,89.91169617806327,55.153766613123565,-26.16932062553194,66.14788287798524,42.91667946853982,33.55727257360871,11.201709176775,49.93096767297368
4,34.74236553088067,-60.89262828458824,68.28383349069875,92.81434513002726,95.22398524358191,0.1642896840774417,32.54263988231965,84.34950701463569,-46.74381529538631,-33.21361480176233,14.386512171755014,75.23529435954188,-21.87467043892492,-39.37137790655051,-49.61811015882996,-27.714299715209194,-35.105785330244075,95.27465746250074,54.261219316865834,90.7975055668948,4.52381620215574,-15.675011599042861,-31.631780526749846,68.97100132855135,59.13011238254917,41.178901717450096,76.67462674921545,-29.284986947179245,79.52598657241094,-36.66509432291893,10.853884878055572,2.5881280507159694
1,14.699237935413644,55.7794550417701,45.451861869961306,-49.09094249008185,-58.79895867532035,-44.041283890157445,8.146652344695568,29.361279488523724,50.76452082565511,-13.688185430916647,13.82970033357442,31.45658510213906,-56.84064278977617,83.03277581748118,86.58013360937707,-35.86731016786923,-5.3491903773338425,35.61833270141748,57.12270219961778,28.136975998954036,71.76347661647652,97.78492650884117,74.28323082062056,19.475197475885583,10.627865350791696,96.44704901176495,61.74592716462957,63.92118129453709,56.61363662156156,-24.809910733382722,99.27523544893492,34.155154143559116
2,51.73743993865797,45.88629386987952,86.0606028229178,-41.267810400412124,51.13827999679051,-55.43496871696771,-37.75732853599052,-41.72779807216451,44.96224802249169,25.43025541154153,34.57941255963003,21.549683163206698,59.95707039057383,87.60901257196147,21.673083595179182,-17.097940835653212,61.66048351069992,-8.181231134699194,60.06153777892618,-31.272695619122732,32.03604576241337,-54.669024147728585,-25.686822972347812,66.75493287163994,89.5386576331143,54.21331533840635,-28.07303307588482,64.1569746533537,42.91857972104555,34.15488903760125,9.111321776832755,49.806761912022424
2,52.86782115909436,46.4348360953236,83.66463838370301,-39.008248190036895,52.7358691619835,-55.92777775353364,-37.151915494561955,-41.98684095147332,46.20938588954409,22.979301423524795,33.760013505197726,20.485243379257206,57.228537720194176,88.21209586277978,21.2159275976991,-17.619077010006542,62.2397083496922,-8.510713243684982,60.380365840154774,-35.220682089774726,31.26090576922204,-56.47197677618703,-27.355810197105217,66.3981442193494,90.37851277006457,53.975121433962855,-29.152771611560937,63.63010484332092,43.0966900532163,35.0988479476906,9.145139825229608,49.01814561701686
3,-12.909679450089383,68.80951248116664,62.284184304852175,97.04879120359948,53.036508331794515,-53.856178273245426,22.713320047667846,84.9034825853473,87.01019028581501,62.852610838264184,35.61500618331487,33.52563331959778,8.09190188243334,63.15383643966149,-11.462015636748223,5.814104797744977,-23.262660002383793,5.9437331432473925,-6.561260016307671,-1.2632418067510311,-28.204738981962205,17.148024967642094,61.30414319540422,-28.224882976934072,5.61872402885652,56.0938636741737,-57.47522293558808,-16.578823207581067,79.76096858156372,56.72601547636025,85.72395847446629,-40.00470231911222
4,34.747197275184774,-59.05375802279567,70.64971216850334,94.39060106856337,94.16583483129665,1.6754089653702793,32.088939575174855,82.44985452521462,-47.20730287837545,-33.961043161331006,17.249671584846666,74.51179665513985,-20.793420439276435,-41.122539037624705,-50.53996587047962,-28.365270706938716,-35.23103775664587,94.21574607557602,54.209479325335195,91.40781404134266,4.971272249196104,-16.658919882115704,-30.46848857209933,67.9226245641028,58.942441462898415,41.96474109578263,75.06947490275108,-30.590243709115004,81.27841458762369,-37.65597360784363,9.943401749922367,-0.35194474804237497
5,46.19132801042412,15.935115131174626,19.107482429008176,60.870446831024644,-55.51026658821575,-22.482211376618228,66.67126308415709,74.5150893091235,-33.0469993215475,39.69608182903193,64.26574187919348,21.941474753394502,39.64864808550385,34.26174963003133,59.97292020460327,-43.3632562914122,13.352977650035474,-58.449708360686266,-33.3027856850617,8.258422501856888,-32.30435264542247,95.20173088984491,-32.9237239258909,-45.08419769841617,30.24618279295807,-12.792431642217771,68.76460034954764,12.171796862194299,68.45124193446696,98.70223899468492,-24.547507894341095,81.53285798501554
2,52.319664617495285,47.40342978562155,87.30304989036185,-41.352782196468056,51.213557970560245,-56.55576974350806,-35.48759032332596,-42.55022570881617,46.485869569118435,22.782534891995713,31.930310109063342,21.03924647527894,59.51649005065225,88.32882348710689,21.198672836703288,-17.20730797796017,60.47167475040813,-9.349179412786327,59.71213057186441,-30.3671363798075,31.569157619853332,-54.31553263002593,-28.680567706003984,66.13736498850261,89.86071096869163,53.80570097095798,-28.03796437972364,66.05387563668398,42.28218037170952,35.18325500529276,10.10304687295919,48.83084533501116
4,33.45201654131051,-57.24803179288247,69.92624669700403,93.85054127795269,95.87857973695007,1.8997302543102323,32.84535982444347,84.20395803206388,-47.2323419629068,-32.50227385005955,16.593841187873263,77.62075776180983,-24.008373683950577,-41.05979754690473,-50.15267850147183,-31.064122754072518,-35.032830082151015,93.74211157392166,56.47833886054213,90.36061098788502,6.097971473655136,-17.272042005036194,-29.276608732356916,68.72142210875947,59.31767263971708,41.103048147348325,74.37304594589975,-28.76893774746004,78.84628092957942,-39.83826417786552,11.800130313566434,1.1464950464845254
5,44.28008034958929,15.173812345470937,19.45217191057831,60.14720985356978,-57.61212485832489,-25.679677902859947,65.72335702035213,75.45147423512044,-32.61825789924467,37.422027557558835,65.77091691400484,21.473099735054127,40.187208064906145,33.65882585425319,59.800686928900674,-43.822021342728505,12.458874140696434,-55.89323959590534,-34.961068957247726,6.415493964969277,-32.87236598063551,95.81089923919707,-34.44029788688491,-44.36206588184735,29.85460764424153,-12.807955836872432,68.4799115728358,14.565085363989416,68.79128760843403,98.11048282732605,-24.610839460827627,79.10387563760037
0,73.42073248287309,24.795447965785737,95.05909625176936,-9.508018651020958,65.38585887126433,-25.14876559745169,65.6483389456711,29.15289295687181,3.386344514375719,92.78785348564719,-9.701144354700181,95.35954870096839,-14.113440558854908,-16.90933232678025,24.002008891356624,-0.025183618084626325,-56.947475884532416,69.93575433385887,90.1844022703919,-30.536793837088208,81.8402311528548,88.67885923488382,-56.072365588962604,-32.73647042112803,-33.8136822205218,-48.095545761654115,77.26707527979917,87.74099314754856,39.99272852690021,-53.23851413262988,84.17634603349924,5.644499928422882
1,15.846273179669184,56.75157637834333,45.01871875925589,-52.178061688173386,-57.81103179246933,-40.98609959731671,7.670753349714852,29.59245977020039,51.08872059393545,-13.41985078939836,14.765486764916565,31.540069395013038,-54.456269605398376,79.87088417299724,86.888193174116,-37.99404035853811,-5.0462067224096465,36.994107750721994,58.17263412181182,29.78683714458346,74.49295815793539,98.53269571450964,72.88507540696182,17.475243615218773,9.742445640486967,97.39587064948698,60.21436018547776,65.420004227309,56.70256009624222,-24.736352903217647,98.72609284812795,32.29150977665931
4,34.623730274095216,-57.993166042780125,69.04827565257911,93.44443911506728,95.96161312101297,1.9266798967740775,33.78138001849629,84.56568955968365,-48.88213637790369,-34.82529283377118,16.290739976544515,76.11834130854342,-23.830356278052903,-40.41327467520712,-48.80142106329498,-28.42388505923636,-35.143851664434294,94.15767464026167,53.92559837487145,91.83428832285068,4.966061918906341,-16.37419544696792,-29.48717960270226,67.70165634695704,61.05144145143915,40.611056736642794,75.68987736804112,-28.76426699508452,79.2360889951944,-37.47406761054213,10.550114387267232,0.5024768208544916
0,73.65897023328603,26.397850004086123,91.52682357421878,-5.282248200934086,66.16879308847722,-24.266770520473592,65.70559127444672,26.92000323810684,-0.5416339830844292,92.2441507192717,-8.13938450970413,97.29238346700406,-12.03108588279637,-16.8396596353766,27.0564364683742,0.216933668868607,-55.76312849646294,69.89402604886621,89.78799982852888,-31.04037795787022,81.61023538669632,87.40832434483909,-56.44973458927871,-31.04154832324991,-38.05019018742219,-47.436398366772195,77.03318934855832,88.74562530625667,38.40348190156315,-54.614687500216036,85.38164201726882,6.184307221841808
0,74.42432804961514,26.28565506714202,94.24814101658357,-6.458671016989555,66.7620650716529,-28.1236914270808,63.94721265149175,26.62890640319827,-0.049123971702597746,93.37662329430567,-11.094797392198775,97.19071601828323,-11.895299379357539,-17.191388471004096,26.212632837000857,-0.9373356352013711,-56.27349549865123,69.66552033190295,90.44799844179313,-31.165982722699574,81.62990142653993,86.73402279136755,-56.896066088370965,-32.28765979138089,-33.59037072856451,-45.14424196286337,80.30482321496535,89.73179392270639,39.14883911423397,-54.9291159702055,86.17694957996746,4.890223062045195
0,74.5607761885646,26.00208950672208,92.41885970804879,-6.47202096317692,67.09417011683774,-23.607968294467586,63.700260405590704,28.23875748437482,0.435611275401356,92.1638092068863,-9.958814506938834,98.02183254540405,-13.481504621250965,-16.25743326325168,24.42201110772063,-0.4722653892833941,-56.73029570424583,68.22190011311751,91.03661633709797,-30.405284982440435,83.2790670605415,86.79715577968982,-55.47226403782759,-32.04847418960593,-36.83283115849075,-46.380230276300026,78.43650982467112,87.75671854016959,38.35154591438078,-53.87519036363456,84.14139265911409,3.5704566096888057
4,32.47633143605319,-57.748891429236146,67.91880688466738,92.8067386167373,94.32122027866403,1.1280498035566067,33.34332797854965,83.09570269860053,-47.67672419748954,-33.5973888394572,17.579677413271114,75.7158764351604,-23.185017665926804,-40.612725160921514,-50.50795197014537,-30.679014740474642,-35.719018697787725,95.31429071617114,54.93329066289982,89.57174934523734,4.267005760278217,-16.050799958215144,-31.0943763093517,68.00989972120067,60.553074979130436,42.312370813779914,75.59099836382845,-28.65704913062029,77.6779162267289,-37.680760358664344,11.619527556063524,1.0678333410278258
0,72.3119483226561,25.574826892373167,91.53931876799261,-5.508010628402935,63.457979252955774,-25.71588074276774,64.03917583253063,26.22184653215666,2.434705897243665,91.46066054844187,-9.923484213737392,98.77535979030816,-14.046537512687141,-16.243079851767245,25.296184795492735,-1.082461738535386,-56.58492787208204,70.21694791398821,90.4059999041377,-33.50580772520158,82.34923221852831,86.15476302545973,-55.9153022668263,-31.56674857164195,-36.19867081601461,-45.35653797700807,77.51557954630225,88.00383528639281,39.453427680812936,-54.27944982595813,83.18049840063793,5.069097135914248
1,14.402880071854481,55.15883053158713,44.6042031980851,-48.52571413448723,-57.21573565908108,-42.37786930521251,6.932515839977053,28.505862253117005,52.50442467058051,-13.828101398782296,12.715662485213139,30.212202364491556,-56.34015207966539,81.1235184819913,87.98151131352358,-37.06680584042256,-4.283653642455932,35.0534687373634,57.36677171810176,31.51687479619573,74.96471992864358,98.69637841667549,72.12843025745971,17.445433477973097,10.144540992754724,97.49468277505957,59.65359997282476,66.02875136240014,57.2773628818403,-25.206845269996837,99.98039976534575,33.928742245468406
2,51.92605390796603,48.3378698571574,85.8783223199592,-41.829515322921786,53.930456075755366,-57.697138005039626,-35.90364099392263,-43.57874388164651,47.75818474492833,22.56144550759177,33.87419291585177,22.288871326585507,57.367423411287426,87.61368053324718,22.513441803395818,-18.204276604803862,61.938883996043586,-6.689174695124116,59.693395649123474,-32.25153883021376,30.518247604482422,-57.085921080638165,-26.789259811563053,66.2159669911682,90.94315473040223,50.811686834121836,-29.35603777131646,67.33081978332598,43.176204641571196,34.964346986947504,9.681373675990148,49.56792383965741
2,51.86725679240113,48.194688233816876,88.51711292236004,-40.368073280539804,51.8882438732682,-54.868648540921974,-37.80710688828307,-42.031038977268565,48.19615635015539,22.07460682124675,32.72331453861211,20.137568094844877,61.00744740502292,88.68275405581221,21.83110916490172,-16.24764858154741,61.28736252182347,-8.722513133177697,61.150674645881,-35.174482654960734,32.71429290779823,-56.06427326874983,-27.360456303489393,68.15813748414318,90.07755805086556,53.59670204583631,-28.106809810734518,66.93038130735403,42.8033937720614,32.503227512493176,10.369108080674414,49.33069030457099
0,74.2121839638623,25.98900013775319,93.56902977294736,-6.783636612791888,68.21848293168358,-23.588577338394764,64.98172495700165,28.35085021135674,0.8060623246269294,91.62572356028635,-9.20243566377453,96.53339769046578,-13.907540777174287,-17.408608052818224,26.34511076161322,-0.9562824430413066,-56.78138688496805,68.98719333582625,88.94250977929406,-31.43950368460041,82.70976490264928,86.8640528002232,-56.89393496970341,-31.658445639917847,-36.08346427331006,-45.8749114594688,78.82713249971957,87.3666852417623,37.80302287168227,-52.0466767647924,86.0147967675447,5.818218343222623
1,15.34383186820895,53.353029129839925,44.75732705588661,-50.75458114859041,-58.61611850042327,-42.20339027674533,8.09395255820982,27.627162403619423,53.02318260091143,-14.427062221339234,13.853688518858284,31.066729084494998,-55.23743506505935,82.63668779576876,87.70371151701917,-36.655221405062505,-4.410544064699529,34.543090352423604,56.848572246512674,30.37914742544617,75.08332173126281,97.21845837963428,72.82016967303441,20.092224898517788,12.205642828373545,96.70749041380212,60.92746663075545,67.65301624853538,55.84035501982984,-25.64780304538631,98.39145721498265,34.348253609556394
5,48.06854001872954,13.836691654500875,20.857093792039038,59.429372421387505,-58.66743244888452,-23.863122286553416,66.27433468434046,77.80297212043406,-30.62658529915502,38.043010737265554,64.50616329621693,23.266257727832933,40.44165904447463,34.17032579673781,61.494881178460915,-45.54139219615348,13.645378689168393,-57.87568356505757,-34.672208585678305,6.738065194039101,-33.49195239828548,96.56860970448649,-33.441878277686996,-44.588655505579275,28.37784678875782,-13.7411658475636,69.32043997480702,12.258188300377343,67.77010241030807,98.44437771510832,-24.687349548752636,79.20179396647946
4,33.652161158733755,-57.725789720251115,69.26501746299513,92.82715464551129,94.66427697111469,-0.5370923767251004,34.409049603041986,84.56905970358841,-46.10300373925792,-31.98059248096399,15.980654033592115,74.84278207262273,-23.603081657030767,-41.26181242078415,-50.51431202372685,-27.976606228187038,-34.65814071443633,95.15498211219499,54.18162808699231,92.75282934574189,4.303932180518919,-15.96370189761144,-32.258438365342634,67.37745904079404,60.78811923623582,42.37524593141258,75.72796812827606,-29.428667434256216,79.88044135193637,-35.942460432104056,11.693853290731944,1.3108825281574126
1,13.964089275526595,56.353869455250184,45.370153307361775,-50.0087937026598,-57.715722849898924,-41.38072992410476,8.681156178192335,28.505762562731505,51.639852432726265,-11.811524357229954,13.5057132301985,31.944473360246242,-57.32084059881933,81.97014280997303,87.68810909012156,-39.195234833454386,-4.55687268210678,35.26204480937186,54.94240606358187,29.79340856633932,72.78718989895192,99.07913192052668,72.80611417968481,19.761968596801935,10.49147953853719,98.1810280266979,61.836304466922904,64.34997689054072,57.790194450207856,-25.43314573651976,99.93555547515747,33.31923207265137
0,73.026345592791,27.76187778777755,93.22041092505992,-8.258440025687797,66.22277361965384,-23.598457045186255,65.58973032903124,27.112382923875707,0.5190149050384862,92.03364023834283,-9.910819519292948,96.7994163793273,-11.65903680730838,-16.369564757789295,23.76897186045067,-0.3785213029428136,-56.00599541046254,69.17790414606223,88.65064840381997,-30.946504515718807,82.16443289543788,88.0709784291593,-56.87221648089207,-31.25897046318931,-36.07953947206603,-47.761065631618884,77.98803806549277,88.8788341397332,37.88150687768799,-53.15317783392444,85.76494440359328,6.565572376469825
0,73.68187524405852,25.385999918466688,93.01875901685263,-8.438602345448357,64.7743661021287,-25.262262310792433,66.26492230836267,27.779953926803657,0.8512385331151964,91.62740842066893,-10.0863617178312,95.09996815231688,-14.65038104794137,-16.734231957384516,25.82703432272281,-2.2517031043172078,-55.316121805596914,67.42311380148583,90.05411774985248,-32.22686525531804,82.10634592883098,87.16204472501576,-56.55895051552778,-31.534797410863867,-35.42566663320273,-48.51273832078132,77.61690385006581,89.32234446642126,37.64611104550408,-53.63257685586719,84.01230620814623,4.945563537100538
5,44.49611799763958,15.652130511302683,20.06098738024103,61.33156510357829,-56.73870171200091,-24.390617277470152,68.35150900084395,78.00287663977737,-30.936234032346885,38.60001340538129,64.0206515588897,22.588402001405157,41.39884688799223,32.48912947264448,59.39432346917369,-45.81364946573669,13.443847999483626,-58.184626340772304,-37.04633242543964,6.530917002996625,-29.72559651497315,96.63636465995465,-36.03281708492625,-44.22593813166024,30.51191747833582,-13.334297563897147,69.53426097325828,13.495894880252676,69.12302349169009,98.58571103042284,-23.892246915619726,80.95896722168537
5,44.28892746075733,16.027165187607217,20.821572727795452,61.20380278799504,-59.07777057034482,-23.44476531516177,65.68420221475068,77.11261658732786,-32.54119977555439,38.42244811294373,63.93403073474144,21.76391233426892,37.39373150090512,31.543721537926405,58.75951771689331,-43.91930184272181,13.923824108649585,-57.419143647550065,-34.42336921806821,6.617164145817823,-34.033060296355124,96.92064537743971,-34.00196086018684,-44.35926193876078,29.983334330444993,-13.240054886749164,68.66089271673366,12.26135371500698,67.5619680628207,97.94612635115092,-23.407732359503793,80.29685677836345
0,73.78474853248235,24.224404240962794,92.23407738881988,-6.763337898256535,66.44405606111557,-24.001628712409573,64.46916308012719,27.939498507822336,1.8613218899475763,93.44774763135386,-9.761053471102505,97.15825142207585,-11.065456423652822,-17.192846544271596,26.937314753903717,-0.8058851845649645,-55.94565945057744,68.81935268596374,90.49606739411243,-30.96678270144566,82.02342267403316,84.72013106620467,-54.768337037332586,-30.097843566908242,-36.40533963869243,-46.28591057241942,78.29303783454056,88.91367202803393,39.65075271368592,-53.569705715888745,85.46089684162014,5.710717323666332
5,45.025661782790046,15.302006873602217,18.307045572379607,60.855194578961076,-55.93904472288858,-24.552912236242335,66.7364931072578,75.29007162328955,-31.341558732365044,39.060891406551505,64.62095218055808,21.942950349560224,40.78280680795716,31.40181600238023,59.866902460905415,-44.03303346395087,11.812810773555414,-58.402209170250664,-35.34567519020463,6.8153673887746224,-33.31597340856486,96.97517249162324,-33.329198553182586,-44.810082140695805,28.828080257974026,-13.612516316927996,70.56865117265556,11.849514296857176,68.88423049883352,101.09982936408127,-23.370466687592824,80.23158581413566
5,46.137259082537824,14.668040576613388,18.770253840440407,58.64434768730371,-56.883454183467116,-23.100075803061223,66.47609560983653,76.8236659986435,-31.260039809011328,39.41348532850667,63.279361394994595,21.416443888235474,39.68329954102884,32.788511976506584,59.88975242900288,-41.978388858198436,12.354740013102397,-58.57999358353235,-36.4841571612211,5.209317544833786,-30.978346284557787,96.45671836438629,-34.61749811808204,-44.337363553273384,28.9278024242904,-14.907252145453265,69.23255823870186,13.297924708698853,68.3444149708635,98.86462410151394,-22.979139199921626,78.9503502200696
2,51.75522782797226,48.91995531746931,84.54456684726254,-40.816903168266045,51.403855270025566,-56.38704823297095,-35.72803061104921,-43.73327492842349,46.684004017702165,22.91303499815232,32.40024225067108,20.470995461740642,59.84192491813067,87.64352221853048,21.216889991394932,-17.89618372430565,60.362665673382196,-9.47998911715275,59.75576892470032,-33.0639058683311,32.1969349985442,-55.42009711758138,-26.539546184551856,67.48136388622432,90.34225535998645,53.09985882995416,-28.681996228918763,66.78253959087826,43.691406653248315,33.61522099863613,10.507591817880295,47.782973915647375
5,43.64116124359198,14.837742656148386,21.100626840898553,58.44064189572901,-56.456938135204965,-22.91041577147657,65.47910927222927,77.23158659740272,-32.2256488207877,39.14281498479053,62.82359753709204,23.52797060949968,41.79289920860802,33.09372113922576,60.14803925774315,-44.11397030003362,12.79400609002778,-56.72669417473312,-34.542993805836886,7.5120441518109615,-33.46396392661955,94.75946580116936,-33.83806766669626,-44.167917580571334,29.158095524475588,-13.315766831028258,71.97743485268235,11.520535762445075,68.69760666046855,97.78116343982667,-24.899734400206942,80.46769171046282
0,74.51486877758816,25.738543235911976,93.0295227552941,-8.377529784164395,64.60665679791656,-23.14326420360307,65.25900586831511,27.359051577296416,-0.2311394244497571,92.45395210336135,-9.278090952907682,96.23224614309443,-13.15672947674712,-17.939624106993318,27.31414448062911,-0.34367784492877085,-57.28366525323543,70.28718207622848,88.92517312525294,-30.098481150573065,84.21335784156652,86.56820785362905,-55.819604196226535,-31.064747934610388,-37.13987984134768,-47.436396872707306,77.53353047216879,88.63920160469556,39.74937592955956,-53.24131882539111,84.2239927487722,4.820058285172144
1,14.082973985953823,54.17433620806853,44.31619429606377,-50.3469279989882,-58.63727261494935,-45.00393508288793,6.734084165058047,28.6875561996383,52.04327310766779,-13.772976655249998,14.174956234519904,31.08686607660721,-55.48489139810964,82.6656150595402,88.94559346442995,-36.53663888244419,-2.507925082513336,34.40635493504034,57.90213528037801,28.518661303678645,74.53421437124199,98.68048088555989,73.38393915780014,22.10931084711905,10.358979252749412,96.93598718497627,60.33893978103844,65.85783494793544,56.12210220513261,-24.819801520943592,98.6522741021107,32.997140300811715
1,14.08695580551025,54.72350650969614,45.68741995611793,-49.62704698071428,-55.97114541652311,-40.99830243386846,6.557739342475267,28.712947378644188,51.92965848097748,-13.715984545227943,15.068440755731888,30.899894378176818,-54.86866774272707,81.37578976287399,86.9783288514188,-36.81881661307522,-6.86294707314785,36.81865294919134,57.68870340960618,28.629717148782408,74.4282035451566,99.12124320787011,72.26358491810154,19.01048748393151,10.219894861752916,96.95966339810374,62.3736203785261,64.87243957648535,58.203842609508136,-23.38295613961279,99.24140603560897,33.198144499684844
3,-11.761676150468325,71.06504876342784,62.1363665713588,96.5609742456202,51.63031300504242,-54.232280139021036,22.494730850073505,84.58287378085976,89.75341560960064,62.54089082848758,35.4289252492313,32.868694538510034,7.09749081553128,62.71625182116161,-11.349619922714979,6.9557642768723165,-22.419524571900112,7.3161587211182475,-4.460987056015071,-1.6470378617802506,-27.294967392016066,17.51748664462553,58.71468668029923,-29.33032919863034,6.487643018932711,55.64845429003033,-58.87153681805297,-14.312978284546944,80.5600475487105,58.04165687118571,83.90490777303266,-38.98286429726982
3,-11.60683001586893,69.00836224440907,64.70935472855624,98.42364866793739,51.0086600221298,-55.85836901528546,20.822785329887143,85.2191484361716,87.99037401452385,64.04071224473694,34.24385914322421,34.12665285455425,6.830933098587171,61.43053226168782,-12.642708217191817,7.832306843115746,-22.643866446358597,5.825565869409932,-3.6727758674034834,0.5789640487292425,-29.899303914477517,16.63787283044806,60.352514259145394,-29.557890600563606,8.06786301692872,56.23252074889413,-58.36712910917933,-13.611155962434086,80.68233095530847,58.656114314773355,83.93834094796553,-37.447659101644255
5,46.67089234584505,15.34161882082752,20.523764111260007,60.293872210192056,-57.24299069922773,-23.40828184713092,64.8978550170357,77.67840611014212,-33.38742568250714,40.556096088660766,63.65909483452241,20.146707468518734,39.872623442836094,31.926997012620166,62.524567740452554,-43.11046493108595,11.584626147943785,-56.32881002868601,-35.070379749800495,6.8088156753251585,-33.7715332480105,98.1078623884892,-33.4786546719454,-44.424946398884664,29.712213030475915,-13.863884511544006,68.75425066570209,11.234420275837836,67.74359661011478,99.06313236683043,-24.363250008426224,79.5332618867401
5,44.01707151760409,15.312172807487043,20.467732289571664,59.614588460452254,-55.75857571050666,-23.95930707209362,67.84441175976777,75.93572719870973,-32.957236467540405,37.588315203585324,64.42834180670013,20.94756956906027,40.06446409358397,34.28889141915595,60.71219884243285,-42.75465510718879,12.737814766750208,-57.92099514643067,-34.86301552072582,4.803142833843927,-33.88106748475597,96.8634518525791,-34.077515808548014,-43.716056393436084,28.958854973675468,-13.837566377626255,68.9412566584815,11.124301725327925,68.47213133492667,99.32652500920551,-24.63875072862488,77.07369028027327
1,13.336580619487457,55.11130952965107,45.75783304094789,-49.2496059630293,-58.89225661262285,-42.477742631972404,7.750738108340426,29.3477381103005,51.96560027444791,-11.326348997594815,13.50995669450136,31.377257964091736,-54.22500022146755,82.87760855999342,86.06885551276834,-39.35259254852505,-5.682963506799019,35.73260045872394,56.365535906225006,28.72027474638588,73.52205756637665,98.67631416293908,72.90690260007833,19.852959548182753,11.673671599248358,96.31928757688829,62.99343873452173,65.2853786181916,57.47029743736596,-23.996182359476446,98.97099200062671,32.59998327787318
5,47.06806558835022,13.867321790159295,21.208006290088647,59.87344578285547,-55.42835894986683,-25.05803982960577,67.51405838360205,75.47723298881247,-32.36159334826826,39.18782074254017,66.51338919023739,20.383619821461966,39.04891919099447,33.09949210719071,58.288382820097574,-45.04020423978728,12.395104038307322,-58.21083538624713,-36.576586468227966,6.766960231688961,-31.831929773461166,96.67842376566509,-32.90713750661535,-43.98532063305005,29.773503605626065,-12.504862444100274,68.43425063627255,12.143238135904998,69.1604404628996,101.47506291369515,-23.47229174589457,79.71131150798614
5,43.06976488988326,13.855933110054705,19.48866792355449,57.38463277322585,-58.3159289511295,-24.539582930329583,68.59348618509063,75.44841123964966,-32.52675344601302,38.967513515657465,62.084238249306104,23.00023944367244,40.857335982279395,33.00155107058558,60.5556406788274,-45.06950561698518,12.837877714325298,-58.29628224033084,-33.088456101105415,7.562130170526916,-32.301172156131265,94.72035699419885,-34.6200713971884,-46.411237039835356,27.032824591387456,-13.321120865127746,68.35917537741295,12.063654790663511,66.69140799548269,99.89246223196798,-23.947308814839754,80.95433329217262
2,51.561610660502865,46.83518506782877,86.13953813375053,-39.810920013139565,48.77677538258098,-54.104661033155814,-36.74682120032581,-42.473298129649,48.08487010367834,22.004143586682265,32.45543383284718,20.644717069186353,57.94564239838982,88.22594272868558,22.394113852832955,-17.169952697725076,59.54387828457032,-8.934372937320145,59.510013948321635,-33.68647837444954,30.78510422803271,-56.35059260015044,-25.156286547829346,68.43098544112823,90.37879673127846,51.751565118631305,-25.80383215793307,69.74662300199824,43.251837295727476,34.462692253614094,7.914568506073664,48.14149523072701
1,13.163236723667413,53.75299948516767,45.7817591627273,-49.483304020724,-58.12335538144939,-43.77985415897456,6.758372127492306,28.346690028944842,51.60107177034175,-11.36694221142,14.198627856069027,30.48545229107705,-56.40495728661637,83.9297627339397,88.15251013711581,-37.80963734934833,-6.126985917112774,36.06126463769482,59.720322192199376,30.014780224809158,73.92485581545009,98.43927892567282,72.19835589508187,17.898982985543476,12.34363579608901,96.56133673232848,60.13705359184639,65.63037189391103,56.907014320149635,-25.957513641357934,98.1317420338596,35.486983271045546
5,41.83216785480802,15.239243750930969,21.237888821697787,57.473469362435026,-54.91596375145998,-24.378447034619775,66.5271942951829,74.78389145950804,-32.17045628661416,39.92523178559775,62.4419291455372,23.182490522668083,41.52235639498285,33.838495659709295,58.66853302785789,-43.12102307995096,13.948856013636048,-57.96128101993556,-34.397978292054695,6.262246906115308,-32.72300627710046,96.02913330938766,-34.777335556151044,-44.78088574040274,30.007068490801004,-12.571675616120634,68.74004765214163,11.690869696367235,69.13103862646737,98.69906030811069,-23.911607428553598,80.10145238688422
3,-12.25905650049963,67.28281425806829,63.98248002740717,96.90108407826276,51.61995988378417,-52.4647320795814,20.76953887014965,82.56962606879725,88.74840859409646,64.38606037321676,35.61416437584108,33.161219893994115,6.849707114108404,62.16151827904813,-9.741168772970141,8.089617852831665,-22.90683337154933,4.585449983864558,-4.070751397174698,-2.2033206616286063,-26.961354356935136,16.952056508208557,60.42135141047502,-28.20451928595349,5.50617670428991,55.70324688476164,-60.014918457463445,-16.532130937338145,81.06115498521282,56.76374681405899,84.33184495016127,-38.24010374323284
4,33.035438895327744,-58.23694425899412,67.68421149566777,94.20739401327339,95.05243605429037,2.2006554912490746,32.927264646210915,84.33768715271583,-46.490316494120634,-33.05484455467756,18.064356258233598,75.3035977052024,-23.45142163028677,-39.31302321895536,-51.77752467994242,-30.548873301804075,-33.67306926385451,95.84044474403666,54.36940453064823,89.72951925654216,3.8912565585007926,-16.926705866135418,-30.15568442118652,68.32081983346472,58.8935224136485,42.060499446200204,76.00720722420114,-30.856144371409147,78.48003465802117,-34.31170971490356,12.53467353435415,0.6813986699209034
0,73.0455793892083,27.314332131613753,91.2773219783101,-6.723245082462024,65.53037337518516,-25.368563982234267,64.01925550470186,28.698184756275534,0.20518501455547322,91.496888120499,-9.40752962206975,94.7402966795804,-12.113143808149102,-18.908000568590058,26.083313181409356,-1.0680236627381987,-55.430009468996275,70.59982471179767,90.79133802268969,-29.5032012210819,82.39168293745436,85.92510703682979,-57.53498700656694,-32.21230997704565,-33.83970467373533,-46.18425172630269,78.00785667467203,89.78184697025691,38.27756294306713,-54.25987284181046,86.67438498934155,5.065997837162967
1,13.644938424594223,55.819330070678404,45.19439520362021,-51.126023570559205,-58.07883855675836,-45.00504006693993,6.579736639265191,29.936370774801357,51.660300778831854,-12.00118228266549,13.67282970667024,30.757988488251073,-53.834678223493235,81.69482715528004,86.8306622506026,-37.67942919715889,-5.407541722450999,33.41687033639015,55.807718040329775,30.557639613011137,73.58575826576835,99.7974633969059,74.65690955458747,20.6084451697411,10.875250620221074,97.10629860007762,60.933164520913394,65.81506105849714,56.33271625562522,-24.20153172859008,97.46125118420943,32.61710374716671
1,14.649160519508287,55.06972365171741,45.194284717678066,-49.55989320982145,-57.56130853741454,-41.1560240877506,7.969105890064581,29.118756890157748,51.06035077575412,-13.303412586471845,14.49662226376777,30.86232149139008,-56.09068329854167,83.72025266145258,86.09544471622736,-37.86596367699421,-3.094511139347303,37.221225253511854,54.97905109484457,29.35865708118567,73.67497710245807,99.68387480247489,72.66059616440043,19.691325800738113,10.087276746255776,95.1864071710358,59.739087399361054,69.13920174301731,56.63158603505291,-25.59324637821774,99.5320937876353,35.3091202858985
0,74.53869553586391,24.041662950831483,94.04740546970558,-7.761568092794601,66.60209941636018,-23.63199187140493,66.20947787064702,25.939363456209655,1.6695357627086134,91.83278556345122,-9.870671489061454,96.59123459489733,-11.541747008803936,-17.69766157422999,24.89317847878826,-0.5925814111211296,-56.547422002293196,68.15952156392794,90.99041350119835,-33.15358003041662,80.57621786309379,85.07707782454439,-56.479052556894615,-31.613457999785048,-35.36474305483853,-46.530504444015875,79.62588591520384,88.85704148788169,36.81021539641706,-52.96113403393446,85.18981961159602,6.0620014137225375
5,45.83673002351809,14.351334297960426,19.32402666835055,59.43903147293536,-57.97186841693608,-24.160717157814453,66.25136234949007,76.73040159765847,-30.787797866213584,38.82160192148501,65.46582261541862,21.50863772103471,39.18335541625882,32.963359481114374,61.25871884974565,-42.89946040769042,14.181634838098365,-60.60136178710551,-34.66809896380091,6.058928761278862,-32.940499543043934,97.40300177738652,-32.80521206843133,-44.720199611602524,28.533985860982135,-13.71054677666224,69.14419534271666,12.446339364079975,67.97405739936544,99.8799266770959,-22.5795201478842,81.30244740693483
3,-11.178137690657344,67.46033767484444,60.94924995882408,97.66762183530267,51.398644124578425,-55.231523651940456,20.209483294022128,85.7945844222653,89.00171888541936,64.12373267259613,35.730048698853906,35.06094569392645,6.6611681404718865,64.28694506982006,-11.004715851405681,5.406438240464651,-22.619733697606033,6.199154205259759,-5.532715195608326,-1.095937397750344,-27.239377662142275,18.036086179462323,59.461248183694266,-28.85175278029726,6.3901706104554705,57.52915433913358,-59.200295070943234,-17.054850842045514,80.66589545984905,56.883600796902535,84.6720520040328,-38.940493432537075
5,45.2117513638073,16.17284575213814,20.139637509591196,58.91675334704506,-56.39807572552683,-24.02945632049115,66.35695949803386,75.97198767424038,-32.52828894098639,40.70152631704673,64.69472418662028,21.57133927915344,40.60339040607552,30.508122056633468,60.98635480353869,-44.749482984964686,12.83931134378352,-55.96663631491833,-34.60964540617219,6.939058068455129,-32.18172672335559,96.19579953337949,-33.372911627175576,-44.450903198665614,30.33056535834791,-13.899617834317231,70.51637176140588,11.117969782096703,68.63233361201117,97.19045888861368,-24.102909761594805,80.77009677951561
1,13.78453814775317,55.367805380162416,46.535130889423385,-50.92021883228198,-57.700199102769304,-40.692005202985854,6.272453023113219,27.816799892133933,52.0259132813701,-14.065265632229366,13.42896978832618,32.52857580246463,-56.22111199152787,81.61130844363531,86.62458834016843,-38.700850871945796,-4.547560306043404,36.34147021071405,55.774879871293486,31.18542245979284,72.48334765869565,100.37326812703053,73.55890933177888,18.2540963049067,10.613603986246789,96.47052411082326,60.78669562380584,67.2985803319571,56.88284757464801,-25.550413974217278,100.94654081727083,31.71195641340649
4,34.740705300883185,-58.235141846826636,69.10578696005226,93.58447313765647,95.49333782287032,0.2194467998288211,31.8263492641899,84.40588847722152,-44.56811364612353,-34.83330995214052,17.990184603139934,73.7961294953128,-22.001646918126117,-39.97848930110729,-52.080978549629386,-30.123930957228545,-34.47802408567098,95.29372899250228,54.80487134741859,90.3819850030846,3.849520769997465,-14.15940304062994,-32.267165975641305,66.63207727163267,60.47164802023298,41.08419778852781,77.00354771679632,-29.69502509095784,78.85873789344537,-37.026649418835774,10.964682121861093,3.2649818233253276
5,46.264960376065574,14.226285807710104,19.528213370904368,59.86971014002026,-57.95870123907871,-24.2727636043365,66.49527995007114,76.4113517973354,-30.736730738159636,37.92230207126437,61.789725030193345,21.939818632868253,41.38218001871132,33.90935983715081,60.90727127498163,-45.130505322506586,12.434738550131431,-57.857267893337195,-32.93417401490492,6.273656829453528,-33.707957330827746,95.92007919497934,-32.55993735876748,-44.643433607746765,28.19417009071986,-13.921907452516686,67.58902059385949,11.204426985605405,67.29398379798803,96.7454365954374,-22.17527943759357,80.24563227524783
5,44.32707524469756,15.885470711260776,18.52127103064789,60.18051075596692,-57.40922651992326,-22.58317995930276,66.59540230918354,75.17430086901302,-31.80438914649648,38.2443652630689,62.93366072598676,22.447002023698236,41.11987686681231,33.47642753649654,59.64845492908578,-44.75292383933083,13.14974280909792,-58.630863900224846,-34.42989256307286,7.473409609929293,-32.253285016677054,96.2021472103452,-34.088120098370325,-45.69745369934735,29.54388738141577,-12.217327745587626,69.45090927627624,12.251378178452045,67.67704641749359,98.59323876763796,-25.25470911125346,79.25999362644002
2,52.6974679604648,46.771614674406955,84.78671533413518,-40.01048473577665,52.50402717002471,-56.51900555129455,-37.42348510818443,-43.296649062212566,46.36621894731722,22.397135819329574,33.77372641748831,21.230199618300496,60.12385514094413,87.67224993976237,22.48964567444305,-16.802221433968036,62.632329156218624,-9.332762592770317,60.43233999979481,-33.14368756974476,33.912883200924576,-57.995303603866084,-26.44023109543578,65.96966447802221,89.82217013775066,52.80557663177986,-28.421896494176426,65.28364636852223,42.34967978260674,33.37260340653617,9.946824069580462,49.2012488526304
2,52.34715778016659,47.60083126215104,85.36199231383787,-38.80621508593283,53.614020234066714,-56.53985355666438,-37.11366497777783,-41.98853989249972,48.195326671623135,23.274010808018996,33.11381190489931,21.30358004916144,59.337927393185346,89.09510651289915,21.680199128020018,-17.951154783970463,61.5493265179847,-8.255831040924933,58.82770047155978,-33.48700091889709,31.63805645002287,-55.92286206857807,-24.72460157918094,67.09878421965246,89.92521198729126,51.52000901200565,-28.18613733990776,66.13438693301914,44.029246185037096,33.26498890621798,10.336939119623226,50.45160715613676
4,33.801389675994365,-57.89986812017807,67.4764063209632,93.18933194760255,95.23052801012982,1.454582248462692,32.210581213917635,83.95040325497585,-46.616257592835396,-33.105285507412,16.196226063315873,74.1652857301705,-23.784930902339884,-41.025609742874906,-48.98252816334551,-30.33275732059979,-35.51373258674912,94.09132333009154,55.38537280166148,91.96839964037568,4.884072565639026,-16.64747587040338,-32.46088238954325,68.22309045099705,60.36374086242447,42.277475887157536,76.12510823232341,-27.830147002806232,79.25962993941903,-36.354327735329825,10.465572131821185,2.8007092645948477
0,72.76660244365863,25.58899323993379,92.77835503260341,-5.4756768428493485,65.28629341605416,-25.00874172119152,65.73399062885586,28.81886092040579,0.23443096650074646,90.95487879839655,-8.471177666058699,95.67804184002135,-14.461876370948744,-16.83069906831044,27.592567549507493,0.4993941545052105,-56.55546644755205,68.3545628610039,90.81656780945343,-30.134785945137246,81.60169622518679,84.90916189749427,-56.70117798631897,-33.06884088769811,-35.3119220850796,-46.58522772100952,78.23750232855775,90.34182003835349,37.004259675006004,-53.539556752618566,83.3448704404099,5.89704609196459
1,13.596115679250337,55.34147319154849,45.04999294203457,-50.26632085039479,-57.87037406364601,-43.00217027108833,6.1652461780899666,29.281532746016566,51.70813303449202,-13.94578629835104,12.857055897719981,28.556223531241052,-57.152584596784536,82.57873407884465,86.91195544704637,-37.91544295658832,-3.6360589759465176,37.00195494223422,56.89555227924469,30.851634634323354,72.58953912613255,98.83797420086302,73.96152445673057,19.237526276149197,9.23964860169473,96.36509942411709,62.83926814352497,66.09004067918863,54.54900306671971,-24.89979854060504,98.88678606488072,31.92316199539013
0,73.3507502908888,24.926679899544574,93.4748945206918,-5.509731701804044,66.08738504304942,-25.270422370794755,65.64023830544765,27.9284879010542,1.3555153472642434,93.87012246992983,-10.529847597460947,96.02020217388991,-12.99910216122589,-16.71493884680898,24.551772361380216,-1.6001339864464266,-56.8998484563091,69.56922604361121,89.87654582212221,-32.33583212709902,80.21743636642945,87.59697659299866,-54.836999064194195,-31.919194818331267,-35.89393522967249,-46.305116342479,76.93277175327039,89.74913321303129,39.16599248082891,-53.960589240157056,87.0617121318048,2.8732168627341954
0,73.24985694648451,27.824018608987036,93.2264459584514,-5.637152913491516,66.96149615142572,-24.87169837934728,65.0106971875735,26.021016614744735,1.7976535095222634,92.80850225521814,-9.836309905340732,97.2557341607772,-12.453174557317883,-16.79011866339188,25.97183118545122,-1.6936273711039467,-57.013063341896654,68.93307159094196,89.69407163718834,-32.994869957413854,83.4759007976468,86.71262652112829,-57.70616624313341,-33.33624927037856,-37.619989880794364,-46.049222631852395,77.4599444733419,88.25327608342954,39.809174417934166,-54.74027962772037,85.45299143806442,4.784516429615144
3,-11.515688454882405,68.42696581610379,62.92375195848693,96.7116595584664,52.081776331222066,-53.40485342395747,22.140083249202053,86.25090993697651,89.38989602939607,63.53761629075551,36.14918440475414,32.98354194354377,6.549643807467703,60.672414259911854,-9.212285884538272,6.58152563261546,-23.135696295953384,4.5263793999211135,-4.30046127858037,-0.8834509943088663,-26.383938955805238,18.16402363343362,61.02614718551577,-29.01493870517937,6.67363386509614,55.88852126420705,-57.13182559844073,-15.942617035077557,82.48105257804744,56.01263425463521,84.45956689134391,-40.57197170128969
0,72.54318399557324,24.301764080751983,92.65734479403132,-8.416634988032277,65.98234130366423,-26.378156213525287,63.999215782815476,27.440337728405005,0.8917538447257629,93.75390528402905,-9.637518017335873,96.3614097363954,-11.890944585581966,-16.550815253181497,23.42512287308283,-0.14050142835715174,-55.18595561239525,68.715551108852,90.64599970635938,-30.803475553271866,84.0907617500435,87.84646315566448,-55.59937711848279,-31.926816239088424,-35.52690775864791,-45.62783901082119,77.60763874565615,87.2678592780591,38.57135987287267,-54.56774242433032,84.9217374552493,3.744838645789241
3,-10.834767669970956,68.1683217752626,62.021377306876026,97.31326929083605,51.72780615967584,-53.052546066415914,21.91445834320614,83.64658512342666,86.44883106697326,65.04688847329368,35.31096093193677,33.067635006447816,5.046449512189625,61.57824160679664,-11.633774857402258,7.711440627340008,-23.467381826972765,7.319707695742402,-5.862037445895298,-0.9705542651572969,-26.775262052946502,18.20494130810132,60.66458980721551,-29.597951832776616,6.728764294046156,56.74676858720005,-57.51841880374131,-15.199265348631467,82.71272501071952,59.377377258821824,84.16691703534961,-39.820597340490984
1,14.023218820551111,54.2931502933826,45.2815521478962,-50.70091262016799,-57.034200035395386,-42.74601102661163,6.897390916675972,28.073270613624928,52.07350320624467,-11.507885255236271,14.318704261974586,29.79626152924301,-56.215226448958234,82.46358365982135,86.86296739297507,-39.15933328967782,-6.9800236184957765,36.053737048090376,57.7165184624073,29.808644812018603,74.85125004376177,97.93506442524871,74.78263816065498,19.253253383227026,9.896020832657838,97.90252746618326,60.48558002742576,65.80485723397392,56.44619890501968,-24.128573388948904,99.89925578125333,32.925042834795356
2,52.695193023530685,48.673634383082906,84.90635546663849,-40.19405117787681,52.020290141302375,-57.59496274558981,-37.75758765545762,-41.70570629048136,49.58759648026763,22.26180835822383,33.13837630920471,22.481693501886237,60.2537386814239,88.56108740434713,21.194077361943023,-17.77068607412034,61.21274531822002,-9.375553047896014,58.18128092736794,-33.14534811100329,31.357471854674284,-56.27325132781448,-27.030156942596175,66.85543784249117,87.88780063916425,51.66955421252097,-26.56981076646521,65.26921698388078,41.50122519256582,35.220774520765374,8.874042789148447,48.02039433400091
4,34.83122732328751,-56.74249910405562,68.1245697054412,94.08901839219776,96.5821858400056,-1.1971152705532853,30.908381154999383,82.83889460400445,-45.2943358171617,-33.63141590755794,16.369673752636906,74.62120876687808,-23.35004471804586,-40.627553833263974,-48.859186655818114,-30.732591621157397,-35.592898071778535,95.60139055400441,55.81423833110618,94.62446639977034,4.401963279182217,-17.546581907831133,-30.157847748973072,69.79509049840892,58.26297691033221,43.18456381197929,76.25283150030252,-32.116932707469346,77.92908420722976,-36.67057401939039,10.5430621337006,0.5360100998840898
4,36.19311530151367,-60.68379898579832,68.61309573685264,92.57899450209739,94.41898019881965,2.5606863191047635,32.75192033257167,82.7114704990892,-46.96982858065723,-32.554687459638636,18.489972061680426,76.2033070589358,-24.450324394665717,-39.121509814749054,-48.85245519199042,-30.065741320183747,-34.37687547537372,93.50838899886911,55.244298045198406,91.7669702974673,6.08910898083766,-14.607730221722354,-30.621812729801096,68.12095692495261,60.12976519123328,40.37681758646075,76.11325762668226,-29.120610907567343,79.7405215539747,-38.326246813347346,10.59865217823487,0.7714593398932436
4,33.396530425122975,-58.414694478978994,68.09712749359736,93.39417213425094,95.19814291243306,1.3886595471120544,35.30305100835199,84.87200596610646,-46.52276135254493,-33.50359712657434,18.15909447185797,76.2041288838413,-22.781579774177494,-40.485526126699526,-49.769382546221685,-28.96053937687118,-34.30783483242702,94.25481694428733,53.15077224901525,91.46183484046674,5.311809750388014,-15.503741854328661,-30.67378638741855,68.02848961469564,59.317201403634236,40.1703651040825,73.98131594570516,-30.9958283966326,78.39837209503425,-37.09692541408148,11.582446736454497,1.7047130057854023
4,33.99548250325654,-57.925838523290935,69.33056149699607,92.7604731199959,94.87520572913239,0.8260450205519374,33.17638858972973,84.82361593443308,-47.44885820310781,-33.22442446837269,14.326225429655207,75.87915714345871,-21.832071249132536,-39.04379390853595,-49.60299795842162,-28.578741943657967,-34.46070864578504,93.52872322582373,55.77740230463279,90.84179935134274,5.055701558343951,-16.613362678086396,-31.921408526192288,68.92460151582166,62.44909948518408,40.370805363362635,76.11974037416805,-28.866685083382997,78.95835083742172,-37.29504391454326,12.676404772368537,3.4266104594832147
0,73.5956574881979,25.25014229347116,92.4610257691467,-8.550598593814817,66.42635387037161,-25.37626371105055,65.59490248307708,25.422291905859666,1.434122328708067,92.74468878901169,-9.082268797207455,99.16100652038571,-13.64813997347239,-13.260739238344819,26.509346914023556,-1.4004146827636048,-56.53179767896183,68.73030150773806,89.32142274227851,-30.73260204273395,80.03668443790846,87.95390733162562,-57.23393131201275,-30.559598341351773,-34.99899501070008,-45.82749059157545,77.91039496337916,87.98526111485887,38.41953767550664,-55.269841076366184,85.06291515450786,5.240603541230025
0,75.82523487567099,27.97067976641511,93.45826826119733,-6.638802541304677,63.41092481143322,-25.4720825209123,66.5514102421257,28.310152799129828,1.0520172496332347,90.92743761366545,-9.948126536594819,96.73973355372007,-11.456084554877144,-16.03585993648155,26.123516107370662,-1.8859279548173324,-56.68142049142073,68.09269089353555,91.43293755994152,-34.226408445857984,80.29481055072145,86.16029774665826,-57.77735012468147,-31.53230518592146,-36.546897310391174,-45.80880332825052,75.05737248752604,89.59246429910023,39.3256598570649,-55.17451455989948,86.03856611084605,5.911854851467931
5,45.7364853530642,14.913292460055134,19.433483639575652,58.24915024169903,-55.91651702646631,-22.58619476481957,67.46104533124334,75.38206634211764,-32.44050843637174,38.34946087023734,64.26713058967476,21.084862968028677,40.13440387017873,32.282118489176135,59.47156329477754,-43.05669476673498,11.747042701387185,-58.26996895446568,-35.64663672941947,6.051636201948883,-34.71120014132456,96.7667781449292,-33.79797704124572,-44.61293264003835,29.835525410683353,-12.976253272575832,69.48880891791363,11.992914509743086,66.52231632399332,99.92417808797002,-25.051433996984176,79.48592920299045
0,75.68674211174539,26.93000580989996,91.98765843654306,-5.516343761350713,65.4874414105041,-24.169187274601743,64.78806706200143,28.019741258936097,2.099757264090097,93.78148035281927,-9.323854232624457,95.47062980382097,-12.021751311559685,-16.221683989244735,25.419829770608608,-0.09268736698198043,-56.2315819332558,68.84355260892426,89.27890281963683,-32.22004294070259,82.13451579419382,87.24533789217277,-57.43095235179473,-32.467943454629605,-35.08341542445025,-49.227172975454174,79.35915754023283,87.72478390622318,39.2510791186511,-52.60051687609823,85.31383983228486,4.116066281680912
3,-9.694673078842749,68.99801482480296,63.49594653873721,96.88730392493783,51.82975593238665,-55.64962008505764,22.118249565029647,85.8453331459089,87.09833197023875,64.41344736027985,37.08756245891664,34.13865503952007,6.985878588531268,63.21020987981903,-10.747606248876634,5.786128903993825,-23.968933885165885,6.209518398537311,-4.175818148597067,-0.14904553247084484,-28.45858878271259,19.067000188646517,60.380320918971165,-28.91240985050127,6.558919478749039,54.769292177446694,-59.699024150789576,-16.335124790745294,81.29956392049823,56.55754767603448,85.02010602934446,-40.364710685772444
4,33.24017929282025,-56.69369030085219,70.8425310220147,93.5703780426528,96.35181114518133,1.350525587579856,32.539678100078014,82.98943131510735,-47.25693610106544,-32.45699981188101,17.136967036158822,73.76256948269267,-21.597616577798075,-39.75397287340781,-50.100953364922425,-29.148648341790143,-33.240128578027964,95.71109026195724,54.93041466580312,89.93933465017994,4.871895378359391,-15.56873279715185,-30.001562251072386,67.6959697368777,61.37517566886032,42.1303230103357,76.57489174493769,-30.552961912536297,78.12952165025914,-36.468041452691196,12.20920553748363,0.36987030487336525
5,44.19207864430667,14.8246924799554,20.503281180821418,58.377151996530564,-55.66920571282103,-23.572235918761635,65.84933909398717,74.97819656972128,-33.688681669205465,39.60388461065084,63.44586841535934,20.592309890417116,41.36412065223613,33.1448778837469,59.191212701255786,-43.52374593242922,12.889503473635525,-58.31718134552219,-34.691790059996926,8.642720938813452,-31.79997979823191,96.64041637462167,-34.372150850344816,-43.854155713392856,30.113303905600844,-13.631335493398161,68.8561526103654,12.9295589959992,67.92597606100954,100.90519657480499,-24.804385243513487,80.29282068120715
1,13.301808521623053,51.68765688174619,44.68927943303073,-49.78362143219348,-58.03482626533531,-44.88666212558974,8.124864661720178,29.109579705200815,52.699087780590745,-12.828583291919493,14.961101785889388,29.12974859845357,-56.094322445368235,83.53821318123731,88.50772131378798,-38.072376301162286,-3.9412804400915498,36.18010727684464,55.99882351592479,28.959875342380474,75.39819650949292,98.83463023918404,72.74508773139952,20.236427549958535,11.731723666584479,96.28024572933617,62.08984270241658,65.79482717663596,56.18566409698192,-23.68290407254803,100.23810166350484,33.99966002657167
5,45.664702228431835,15.144443927087464,18.92751868435199,60.07479027844181,-56.06346653614905,-24.814737088948775,67.71589761545007,76.18624604272794,-32.640540759572254,37.0943375930179,65.26020806280091,21.843300062214848,41.41269997352616,32.791341998306514,59.61698881857541,-45.20475059214423,11.531914401327967,-57.640437773162276,-36.03215390399439,7.703260001203102,-34.219651304368256,95.65650395664613,-36.430902055261704,-44.646582961030994,28.53330326293468,-12.675491168388524,67.76828647864295,12.28576788714133,69.76358752493809,98.87248828284224,-23.230631015606225,80.079460165827
5,45.003119782297155,14.77379914141409,20.274931138417227,58.62964952919038,-57.09614968635057,-24.67343129689846,67.44189267786332,75.29920131957844,-32.59429816619844,40.75873119610029,64.87281274389028,23.267720352415527,40.090201849816964,32.138081446677226,60.5746960368379,-43.295413436796295,13.08883215557653,-56.87154029875795,-35.66506525203107,7.881380429672372,-32.66794898587694,96.37980491024116,-34.1011103553599,-46.51061138086926,30.312630282625776,-12.425807399022654,69.52836318426914,13.483064749365456,67.65294990040371,96.90448692551622,-23.13596781905134,80.08738969880028
5,47.24359917948892,16.48293820558159,18.514146006430884,60.035529215370104,-57.83054958065252,-24.408840595058514,68.70803720958766,74.88809740120875,-32.22985320630699,40.374678357204374,65.0605553985932,20.468162414471248,39.06747673718137,31.95016484566892,59.34214910805091,-43.53696248143243,13.821789092769228,-57.48966210526031,-33.2163354210285,6.431457822499192,-32.044222828189504,95.45703031943242,-31.51377453692921,-44.19122933687692,28.588619868703603,-10.733724619815195,69.57200672239419,9.923689072372921,69.54735234392132,99.2624358790328,-23.222191803902287,77.87567832338777
2,52.598285702124954,46.8229192606269,84.58431102290483,-40.42635495787806,52.40773962237954,-55.17972749179805,-37.451503831822926,-42.97550189284547,46.76828995445886,21.310452197208186,33.81114184456653,20.489400173300783,60.9708630807336,88.86702431718938,22.58883420846596,-17.582753270324176,61.83710034711561,-8.066499258402756,58.98459512908172,-32.45438716947352,31.956048472636578,-55.64176066937976,-28.04766412090048,67.98708127244232,88.0763574066283,54.49791856148502,-29.7402841552108,67.43870584066522,43.027227067313966,33.38329974162576,8.588228178219792,47.85649494351745
2,51.534571325068164,46.67166851618239,85.19601743603492,-39.31375422987062,49.91269717099479,-55.67506565762355,-37.17567449878449,-43.64408038012434,45.94563169079963,22.275958870395197,32.986534510659055,22.638825288196042,58.433486287318814,89.29284738873937,22.014270420781017,-19.49215462417463,60.14226658345352,-8.607457527884744,60.18445834835407,-32.780076337764974,32.37625309602736,-56.98313171401811,-28.685887551574346,66.91458696911408,89.29827502681252,51.24341098945424,-28.463391156022492,66.7981771140999,43.289924581355194,34.35533297590714,8.272436813172526,49.629484323667356
2,52.60097752880501,47.39882054736354,87.3620665969542,-40.57333100830154,52.942263279031145,-57.12486476696689,-35.816051242489266,-43.20083446945437,45.35988609220025,22.86532297902186,33.99033710428106,21.297752089554205,59.32056936982182,89.32764607862339,21.34728031643177,-19.427849538115748,59.54419365577157,-9.03715557908333,58.748509444946826,-32.74165503753755,32.7062172561057,-55.48924781746189,-27.339010054109995,68.13599681955563,92.23568582065586,55.010156641685555,-26.883379744057855,64.61186627579204,41.07117798839358,33.24978153582455,8.523590147081663,49.84482195285382
0,74.30729225543124,26.824553923576378,93.36966734401831,-7.606555544937065,65.69057717852962,-24.413140397446416,63.97721077013812,27.284338407511868,-0.633298925742583,91.8919390487025,-9.41925421767957,96.9090145930179,-13.200294722824708,-18.732483434257468,24.686604898748,-2.2700423389752973,-55.73303759839956,69.70450695752255,91.18697825798026,-31.219443809186583,83.02191003969207,87.50808147944667,-55.2347793551167,-30.9757622029694,-35.92939822445313,-46.581341518784846,78.59664210045008,89.97270630813802,37.88972939309296,-54.293233661096,85.51755327553309,5.0345305277033106
3,-12.454488786495537,67.96213779145658,64.27011757072931,96.28603742149642,51.663668237554,-54.69204217715165,21.573670374328103,84.3385500770762,88.64477069563772,64.89778824035031,35.358093997813725,34.069560356234746,6.647119376145379,63.022034527490256,-12.4838192633329,6.448416901054898,-24.853087865993178,6.42280759144172,-5.22162028007392,-0.4168348985843341,-27.286700461037334,17.466240097878302,60.50943280408124,-30.53611034650239,7.914343164020226,56.62974374456919,-59.07354211542279,-14.477083003030588,80.56004136087175,56.99896185716922,84.57219838133092,-37.86636937007066
2,50.866630110617606,46.2212331008611,86.69996117516914,-38.674814664375766,52.08441809040934,-55.301560712489845,-37.27107900169178,-43.69757732415864,45.43154567199193,24.486105171271433,32.508514547825094,21.403515127661205,59.90514241335275,90.40332164984584,20.785240125288457,-18.636529140203077,61.963372517126544,-8.513231178538971,59.490401553576945,-32.52249310397998,31.230548295891445,-57.18063868576634,-26.57100095649041,66.93171916228327,91.2812925475724,52.634375024561066,-27.397052523425277,64.60870498725986,44.101764062785534,33.20143812711264,10.471030026619163,49.31063007569001
4,35.457452387423686,-58.371154868045885,68.46142520300153,92.55992336279996,95.7026885444351,0.4662414793568723,34.69317624945167,84.22436840762039,-44.77555695295685,-33.50858122649469,17.329374179676467,74.03036915204868,-24.074494439808003,-40.03706362753665,-51.261811498133355,-28.553974749772596,-35.64270741191004,95.8790655364834,56.6117534948122,90.10513994828878,5.276313614354071,-17.334807456807543,-29.81264906174212,68.16499561327801,60.73813938227322,41.03765365688304,76.24610536796634,-30.111638355269097,79.27385754145456,-36.69737643120797,9.536069354028678,0.9888541076540638
1,14.569251728258362,56.191457519127034,43.260292927276986,-49.46851612393138,-56.451618613606385,-42.949646813887874,7.076132745104148,28.681749748348103,52.49922721616905,-13.228174307970775,10.983386344851167,31.778846189121165,-57.04340128903335,79.86195889813436,85.28000021550871,-38.35794258573713,-4.711554618316528,35.97727923632927,55.432410830561835,30.046815103306706,73.19234012442647,98.35981905360157,74.38201897423919,18.822486320146123,9.53565585159123,95.86987719207629,59.719809148334164,66.54922885488008,57.35352232679877,-25.17087475432054,98.92686620612999,30.932698210185226
1,14.705263927048941,56.134883255313675,44.7955285187274,-50.643902085129966,-57.76073735225132,-41.42846567742858,6.780143309119489,29.073605705144733,51.44138892284755,-14.671108575719188,13.431572716297728,31.607444250571227,-54.97519162525441,84.01540044276561,84.81585786489639,-39.11331452723075,-4.344620963424407,34.68404333143365,56.49086065312265,31.647578619430384,74.77643072906608,98.13390874980088,73.04576074284634,19.711054082954437,10.289766278176476,97.28705500265166,60.470947634301325,67.63700140440098,57.8771666235499,-25.830803574869233,99.69403024437007,32.61468900268007
1,13.48838879681032,54.50267895435498,43.68111990845773,-50.676524924801974,-57.81388197469498,-42.190264167935965,6.331538758020316,30.96344774415878,51.784024398074585,-13.108634331368267,13.00002140667145,31.332435266524087,-54.69337655232348,81.65756863415297,86.99128148455655,-39.37255902003658,-4.521798288446937,36.68930983892657,55.98807784712688,29.778887102435597,74.83810426651392,99.70532375908459,75.47508871698226,19.462577350355293,10.23128727931822,97.5839446516369,61.34710695190213,66.60544953755779,57.89026005120559,-25.3197590280372,98.70982596114068,31.24978257266457
0,72.11487105957157,25.436753872005884,95.12820689352291,-7.629780598158038,66.34848117561901,-25.735678943638177,64.79431782460306,26.26049978454886,0.33831077876513327,91.83857512025166,-9.755476844362589,96.98893497675856,-14.270030016196166,-18.38647858810581,27.124631842337177,0.14273382180281824,-54.082324723664826,69.16056581782647,89.40823917768553,-32.2682814008488,82.2043864208662,86.03751227039396,-58.545954718518104,-31.29873279088734,-36.517879413675985,-47.34527631400599,77.42620624637328,88.87309650930455,37.84025981396446,-55.14965949167506,82.93506327255615,3.724095176952199
4,33.91360534344425,-56.996776510054346,69.09605626126994,92.02659561933683,96.01221765972515,1.6857566374013144,33.56661057743106,84.3210634526854,-48.683443618547884,-33.352258186234046,15.218297855498792,75.50811173680816,-23.494604509153,-40.63064405906624,-50.01873635503689,-27.94349075082272,-34.70731231340608,95.02830277341182,56.07014433097124,93.40464930238481,6.133747229993391,-15.507434947171628,-30.20571253937257,65.45774904668669,60.5391174247672,40.50259325875374,76.09206340485233,-28.178150329056187,79.8178193404834,-37.60327234649879,8.745454110943951,0.3797095209346153
4,34.34012080654775,-57.74037220139648,69.40550090088203,91.77468320047825,94.26763478199227,1.2309025918936656,32.72805391115377,83.28581632391744,-47.642511356512074,-31.687274008685257,17.444615464169914,74.33306384693334,-23.6507109541067,-39.93866872227458,-49.4564856246738,-28.219151600684427,-35.668724367950894,95.82934457386499,56.66290836741768,91.19467283542429,4.598908964720868,-16.27881044156771,-32.182966745834484,66.04243111473629,61.5161409926313,42.158684028081645,74.96205703489214,-31.701558891278566,79.22342213171052,-37.756090349375654,10.662743697376344,1.0565474070537648
1,15.56965524457626,54.264306275642234,45.76565185139213,-50.0971612914699,-57.71136917886154,-42.97101939730902,7.619692946008193,28.70914751883002,52.9231903056423,-13.286555565006967,13.507699120293813,30.150354897530708,-55.190028766447256,82.83706286081711,89.05278113560996,-38.599924659296114,-5.213279214732277,36.22163702569603,56.47431736907443,31.954364521530422,75.21190253224252,98.44407296303241,72.46505007041891,20.481496635951103,10.403890422888054,95.14966771832313,62.4134854765412,65.50228180763925,57.90275713138406,-24.421879483099005,99.4875104552064,32.92202804673788
3,-11.325890507573446,70.34846297170814,64.15357590656726,96.7370778247332,52.28396492226164,-54.55326277557811,21.656008847180452,85.38784431529939,88.17286367189995,64.11486974439018,35.29513553596872,35.06878052869443,9.398455240530941,62.647781192130125,-11.272964109972081,7.391305720521793,-23.876614073544935,6.414536609597175,-4.317122159051705,-1.902496579070307,-25.67576971764786,18.14026261511254,59.31373044882571,-28.312196333149803,6.294006169871152,55.408575219794464,-59.91445149293151,-16.544699545201887,81.41791252390195,56.478914571565596,85.16714329455962,-38.60462615493292
1,14.908491792013706,53.66389098905127,45.02348023095996,-50.51856222728965,-58.18670460506492,-43.883597190163854,6.342977652874568,30.13357399947349,50.391044130264255,-13.418990624234295,13.461412693190812,30.740800574973207,-57.249682696644626,80.50183242714877,86.42575645160777,-38.39613559636724,-5.429928744767863,37.83559149412426,59.270360248922024,30.725642336745075,74.98972024965603,97.15477726978267,71.9971491664977,19.95240135426097,9.331900511561628,95.1128013488897,58.49961657961212,66.72966348144844,57.31092245984742,-24.98957710637793,100.31049252982854,32.35876496023339
4,36.087027641128024,-59.56464059683734,69.87928061703182,93.88930470581973,94.84480670847171,1.002898582952417,33.374005838385244,84.8873943558803,-46.22713254220548,-31.44166790229258,15.748079165536115,75.92780985940979,-21.302820836661535,-39.970746108226656,-52.176991501756554,-28.97799553927529,-34.71622594898436,95.04263134880281,54.767305264346604,90.04222489126244,5.052177333367605,-16.071241787330464,-30.514726044649866,66.81854397330507,60.370042237577024,42.668090561924394,75.35430134694934,-28.793209577256718,78.77578989220557,-39.16721351176775,10.635815165087878,2.314285699321069
1,12.770904247552128,56.62984422211548,43.790482687727796,-49.364072034391064,-59.52915224114854,-42.94084260434118,7.058082814735451,29.573507571527482,52.76275670082461,-12.611478972084722,14.776024008211994,30.891956406309646,-54.914457172313874,83.79133347228237,86.18837094345089,-39.71592680109809,-6.03841702840988,36.41853744918141,55.96240018461919,29.85184071033845,73.50785147227776,96.1069507143068,73.03547940836383,18.64405978892829,9.787466736232448,95.80434751511154,59.66756193584367,65.15292470045408,55.70696698769315,-25.213804055516174,100.05164138136999,33.11504368742188
4,34.83616412980191,-57.31369509678788,70.07063798031734,92.89390374513648,94.44196927149424,-0.45893634136706885,32.48004094788078,83.96344293309583,-45.96758138165895,-33.921106743839545,18.18919799152659,76.68474597948247,-21.793664651071886,-39.025459474321345,-51.607283339984534,-28.149336111254012,-34.12992543489598,95.30732519787644,53.6487931948303,92.65461591003798,4.944115699355129,-15.656399287139708,-31.759017888329097,67.42060461485477,59.777094502465445,42.029555252813914,76.84302077294527,-30.720731029120902,79.51006436226963,-37.63955690273473,11.699533074404762,1.044356041377063
5,46.40454593602596,15.45892726646924,19.23377729202992,60.99658379339743,-56.79704830594921,-23.08033573611218,65.86574752705688,75.43961155215649,-33.16498758212323,38.16823732456784,64.05320004690766,23.347381576680725,40.12522944802276,32.63390189214125,61.19487194386245,-43.89825234225763,12.695253441015101,-56.229251895852926,-32.10133870810929,10.699911985431818,-32.78918145723521,97.08062292401854,-33.23251829250277,-45.25783846556605,30.93925334651616,-13.226408789005996,69.92935655956022,11.899650077207351,68.8738438206129,98.24915468656212,-25.51073999008624,79.6766246848705
0,74.90087009500918,25.42226213060626,92.63066335713944,-6.6021277977792385,67.41105808785711,-25.211336915759716,65.38942745237036,25.67428056727596,0.38592702351204233,92.13686358267182,-9.681603228715694,97.04760250544153,-14.331586388390193,-16.62629882134792,25.871123199366878,-0.22660475418571568,-55.88557983803877,67.80905393033464,89.88696724795702,-31.72143021765452,82.30882874898849,86.99001862122418,-57.5378212015358,-31.420031462760747,-36.34795829674573,-47.020694763167945,78.33863338705342,89.01624809411558,39.429106824372646,-54.226582091427744,84.82941027588276,5.040231457599809
1,13.56766671589357,54.4062890148235,45.364874363644496,-49.10500008775578,-57.20642326801517,-42.533486471927624,7.831940755827436,28.71952606105013,52.182887203723745,-13.663654208172805,12.94229094327319,30.29711141234355,-55.504002281893925,82.14049101931255,85.24201205948164,-38.077013661005566,-5.213346146185191,35.98729264980452,57.0166857996369,29.444023031446577,74.56860608413018,99.20374739883586,73.36244460247006,19.461074559495884,10.678479661962236,96.66660670323881,60.699742624938516,66.8740225504727,56.53968674154244,-27.35025980083428,98.257934643075,32.28229307481582
3,-10.700231571453223,68.78526409646082,64.49447229498536,97.79658127609264,51.75437325796653,-55.07266130650825,22.045907822258695,85.38019366115351,87.50644742623136,64.00678531183237,36.74480551457591,35.401993937521205,6.310408475765973,62.670834150984476,-11.849030125470597,5.317148805608642,-23.05142063187159,7.259631750641566,-5.185211424727504,-0.31026280954227015,-25.857943519585632,17.2204289947663,59.663126798908344,-28.6051599119525,7.578017631642321,56.401272020563226,-57.557321306397796,-15.704415430744653,82.30080717788691,57.31746250614506,83.0185281534476,-39.79000102789358
2,52.80230095373018,47.38520391378609,86.15505603537964,-40.92740962505367,52.63106294812699,-56.06517427921012,-36.1864123573419,-41.906846917709885,47.980339718600206,20.784374694686495,33.82317457191011,19.999452860818668,60.41598830207065,88.39253660898802,22.970330223183655,-18.436596566739944,61.85439556486932,-9.577968682001467,61.160447561493825,-33.52105790922511,32.589438065799854,-55.755109257867474,-27.074946206461824,67.59827183853986,90.67324231201302,52.23056028339734,-29.886536937651805,66.33661056505993,42.870758690484536,32.69826910982064,9.930121678286607,47.84251963056972
3,-10.922906202673891,67.91173973660393,62.82821495261156,96.85078045678091,54.02803498727606,-54.394952532302035,20.862310593330857,87.23346880663632,88.2802635040407,63.75075432629875,36.50035346278411,33.168637860211156,7.142813408146756,65.19556531899134,-11.66401554817878,7.485534218873519,-23.25120700284538,7.115081269451954,-7.070216231630752,-3.4882321567645476,-27.106175793227273,17.46363855186454,60.749812913199186,-29.522526894532437,7.142544009297972,56.25447752264312,-59.27350040985269,-14.476841723160785,81.29200351020792,56.61050147554397,84.30026216260879,-39.36201139788929
1,13.091225177034364,54.866569294562304,45.00198730932121,-49.98290404334532,-57.49772572378816,-44.3681506238471,6.562232886517779,29.48944774572751,50.28832770704206,-11.458941949550905,14.32792480747976,29.514294385657944,-57.47494589067334,80.53949651383344,85.714356305727,-36.80596344922836,-3.482908212168283,33.94237245493113,57.09481518183528,30.417020584314926,74.9907080191927,96.8648669863397,72.23598257437364,21.183367142090766,9.524738218006473,94.82182407917638,61.81703251268851,67.10545490443329,58.11583140359627,-25.43643551040665,101.02384747317096,31.83391658345871
3,-11.00589304913751,70.04034573246388,64.91194017170724,96.91889675579174,52.03095814234857,-52.52679441890835,22.44061775553992,83.38976744019736,88.0401898419852,63.41201357519906,35.356240607315165,34.188692986008114,7.690292828553678,62.50185423997427,-11.745999532427607,6.673130009452701,-26.637437167245512,7.530702064425032,-5.894518336948084,-2.0451674048346984,-26.728607432882498,20.81470410433391,59.94454670921968,-29.307901965167346,4.598644730543143,54.44292346919017,-60.26918023564972,-15.947533907843601,81.64452445290264,56.608679494054755,83.2369994561702,-41.01366794840092
